//Numpy array shape [128]
//Min -0.003906250000
//Max 0.003906250000
//Number of zeros 125

#ifndef B25_H_
#define B25_H_

#ifndef __SYNTHESIS__
bias25_t b25[128];
#else
bias25_t b25[128] = {1.05859375, -0.47656250, 0.10937500, 0.46875000, 1.04296875, 1.28906250, 1.14453125, 0.35937500, -0.12500000, 0.24609375, 0.29296875, 0.65234375, 0.23046875, 0.71484375, 1.25781250, 0.60156250, 1.47265625, 0.93359375, 1.37109375, 1.25390625, 1.00000000, -1.43750000, 1.10546875, 1.17187500, 0.29687500, 0.08203125, 0.19531250, 1.20703125, 0.35156250, 0.84765625, 0.38281250, 0.80468750, 0.96875000, 1.42578125, 1.17968750, 0.05468750, 0.89453125, 0.00000000, -0.10156250, 1.64453125, 1.31250000, -0.55859375, 0.55859375, -0.49218750, -0.46875000, 1.44531250, 1.51171875, 1.27734375, 0.05078125, 0.32031250, 1.49609375, 1.02343750, -0.11718750, 0.39453125, -0.56250000, 0.75781250, 1.12500000, 0.78515625, 0.13671875, 0.45703125, -0.39453125, 1.21875000, 0.27343750, 0.20312500, -0.66796875, 1.13671875, -0.10546875, -0.36718750, -0.01953125, 0.07421875, 1.25390625, 0.19140625, 0.26171875, 0.83203125, 0.36718750, 0.14453125, -0.10546875, 1.04687500, 0.92187500, -0.05468750, 0.21093750, 0.88671875, -0.05859375, 0.85937500, 1.00781250, -0.69140625, 0.10546875, 1.03515625, 0.85156250, 0.81250000, -0.51171875, 0.49609375, 0.58984375, 0.51171875, -0.14062500, 0.12500000, 1.06640625, 0.84765625, -0.36718750, 0.32421875, 0.35156250, 0.26171875, -0.45703125, -0.12500000, -0.35156250, -0.46484375, 0.24609375, 0.80078125, 0.69921875, 0.94140625, 1.04687500, 0.28515625, 1.32031250, 0.05078125, 0.03906250, -0.00390625, 1.18750000, -0.13671875, 1.23437500, 0.65234375, 0.74609375, 1.53515625, -0.26171875, -0.07421875, 0.77734375, 1.14453125, 0.69921875, 0.42187500};
#endif

#endif
