//Numpy array shape [256]
//Min -1.847656250000
//Max 3.691406250000
//Number of zeros 2

#ifndef B36_H_
#define B36_H_

#ifndef __SYNTHESIS__
bias36_t b36[256];
#else
bias36_t b36[256] = {0.53125000, 0.83203125, 0.74218750, 0.00000000, -0.03515625, 0.99218750, -1.43750000, 0.22265625, 0.78906250, 0.39843750, -1.53515625, -0.79296875, 0.35937500, 1.03906250, 0.66406250, 0.45703125, -0.41015625, -0.03125000, -1.31640625, 0.32812500, -0.20312500, -0.48828125, 0.39062500, 0.00000000, -0.08593750, 1.57031250, 1.21093750, 0.91406250, 0.42187500, 1.03125000, 0.74609375, 2.16015625, 0.39062500, 0.30468750, 0.38281250, -0.66406250, 0.55468750, 1.25390625, -1.12890625, 0.17578125, 0.33203125, 1.04687500, -0.05078125, 1.14062500, 0.94140625, 0.96875000, -0.07031250, -0.11328125, 0.62109375, -0.69921875, 2.80468750, 1.05859375, 2.53515625, -0.78125000, -0.55468750, 0.62109375, 0.11328125, -1.52343750, 0.39843750, -0.70312500, 0.34765625, -0.17968750, 0.83203125, 1.19921875, 0.96093750, 0.05078125, -0.49218750, -1.50390625, 0.51562500, -0.36718750, 0.99218750, 0.73437500, -0.27343750, 0.41796875, 0.71093750, 1.03125000, 0.32421875, 1.10937500, 1.01953125, -0.48437500, 1.14062500, 0.30859375, -0.22656250, -0.20312500, 2.23437500, 0.42187500, 1.54687500, 0.03515625, 0.25000000, 0.79296875, 0.97656250, 1.19531250, -0.37109375, 0.20312500, 1.05078125, 0.23437500, 0.44921875, 0.47265625, -0.57421875, 0.03125000, -1.64062500, 0.91796875, 2.14453125, 0.37890625, -0.44921875, 1.17968750, 0.54296875, 1.53125000, 0.86328125, 1.81250000, 0.45312500, 0.94921875, 0.43359375, 0.17187500, -0.70703125, 0.45703125, -0.16015625, 1.75390625, -0.77343750, -0.43750000, 0.90625000, -0.42968750, 0.83593750, 1.34375000, -0.82421875, -0.33984375, 0.87109375, 0.19140625, 1.01562500, 0.17968750, 0.78906250, 0.77343750, 1.24218750, 0.37890625, 0.69921875, 0.59375000, 0.33984375, -0.64843750, -0.46484375, 1.53515625, -1.30859375, 0.23046875, 0.26953125, -0.19921875, 0.57421875, 1.08593750, 2.06640625, 2.61328125, 1.01953125, 0.41015625, 0.13281250, 0.44140625, 2.64453125, 1.30859375, 1.06250000, -0.03906250, 0.24609375, 0.28906250, -0.29296875, 0.72265625, -0.04687500, -0.48046875, -0.86328125, -1.83593750, 0.36328125, -0.51953125, 1.12500000, 1.11328125, 0.03515625, 0.86718750, 0.91015625, -0.46093750, 1.08203125, 1.46875000, -0.80468750, -0.11718750, 0.27343750, 1.94531250, -0.68359375, 0.69140625, 0.48437500, 1.51171875, -0.23046875, -1.14062500, 0.79687500, -0.53125000, 0.58593750, -0.08203125, 2.01171875, 1.00781250, 1.04687500, 0.24609375, 0.22265625, 0.48437500, 1.05078125, 0.17968750, -0.96484375, -0.35156250, 0.27734375, -0.47656250, 0.17968750, 0.25000000, -0.08203125, 1.07031250, -0.09765625, 0.64453125, 0.30859375, 0.75000000, 1.31250000, 0.39453125, -0.14843750, 1.19531250, 0.15234375, 1.27343750, 0.35937500, 2.42578125, 0.01171875, -0.26562500, 0.22656250, 0.31250000, 0.49218750, 0.64453125, -0.41406250, 0.34375000, 1.43359375, 2.89453125, 0.25000000, 0.75390625, 0.86718750, 1.35156250, -1.21484375, 0.62109375, -0.16015625, -0.77734375, 1.27343750, 0.32031250, 0.46093750, 0.91015625, 1.23437500, 1.25781250, -0.06250000, -0.50781250, 0.51171875, 3.69140625, 0.42578125, 2.27343750, -1.84765625, 0.68750000, 0.94921875, -0.45703125, 0.70703125, 0.82812500, -0.19531250, 0.01953125, 0.51562500, -0.23046875};
#endif

#endif
