//Numpy array shape [3, 3, 128, 256]
//Min -0.253906250000
//Max 0.269531250000
//Number of zeros 9026

#ifndef W29_H_
#define W29_H_

#ifndef __SYNTHESIS__
weight29_t w29[294912];
#else
weight29_t w29[294912] = {0.00000000, -0.00781250, 0.00000000, 0.00781250, 0.00000000, 0.00390625, 0.00000000, 0.01171875, 0.00000000, -0.00390625, 0.00781250, 0.00000000, -0.00390625, 0.00781250, 0.00000000, 0.00390625, 0.00390625, 0.01562500, 0.00000000, -0.00390625, 0.00000000, 0.00781250, 0.00390625, 0.00390625, -0.00390625, 0.01171875, 0.00390625, 0.00781250, 0.00000000, 0.00781250, 0.01562500, 0.00000000, 0.00781250, 0.00000000, -0.00781250, 0.00390625, -0.00390625, 0.00000000, -0.00781250, 0.00390625, 0.00390625, 0.00000000, -0.00390625, 0.00781250, 0.00390625, 0.00000000, 0.00000000, 0.00781250, 0.00390625, 0.00781250, -0.00390625, -0.00781250, 0.00000000, 0.01171875, 0.03125000, 0.00390625, 0.00000000, -0.00781250, 0.00000000, 0.00390625, 0.00781250, -0.00390625, 0.00000000, -0.01171875, -0.00781250, 0.00390625, 0.00000000, 0.00390625, 0.00390625, 0.00000000, 0.00390625, -0.00390625, 0.00000000, 0.00390625, -0.00781250, -0.00390625, 0.00390625, 0.00000000, 0.00000000, 0.01171875, 0.00781250, 0.00390625, 0.00000000, 0.00000000, 0.00390625, 0.00000000, -0.00390625, -0.00390625, -0.01562500, 0.00000000, 0.00000000, 0.00000000, 0.00781250, 0.00781250, 0.00781250, 0.00000000, 0.00781250, 0.00000000, -0.00781250, 0.00390625, 0.01171875, 0.00390625, 0.00781250, -0.00390625, 0.01171875, 0.00390625, -0.00390625, -0.01171875, -0.00781250, 0.00000000, 0.01171875, 0.00390625, 0.00390625, 0.00000000, 0.00390625, -0.00390625, 0.00390625, 0.00781250, 0.00000000, -0.00390625, 0.00390625, -0.00390625, -0.00390625, -0.00390625, -0.00781250, -0.00390625, 0.00390625, 0.00000000, -0.00390625, -0.00781250, 0.00390625, 0.00000000, -0.00390625, 0.00390625, -0.00781250, -0.00390625, -0.00390625, 0.00000000, 0.01171875, 0.00390625, 0.00781250, 0.00390625, 0.00781250, 0.00390625, -0.00390625, 0.00390625, 0.00000000, 0.00000000, -0.01562500, 0.01171875, 0.00781250, 0.00390625, 0.00000000, 0.00781250, 0.00000000, 0.00000000, 0.00390625, 0.00000000, 0.00781250, -0.00781250, 0.00000000, 0.00390625, 0.00000000, -0.00781250, -0.00781250, -0.00781250, 0.00781250, -0.01171875, -0.00390625, -0.00390625, 0.00781250, 0.00000000, 0.00000000, -0.00781250, -0.01171875, 0.00000000, 0.00390625, 0.00000000, -0.00390625, -0.00781250, 0.00781250, 0.00781250, 0.01171875, 0.00390625, 0.00781250, -0.00390625, 0.00390625, -0.00390625, -0.00390625, -0.01171875, -0.00781250, -0.00390625, -0.01953125, 0.00000000, -0.00781250, -0.00390625, 0.01171875, 0.01171875, -0.00390625, 0.00390625, 0.00000000, -0.01171875, 0.01171875, 0.00781250, 0.00390625, -0.00781250, 0.00390625, 0.00781250, -0.00390625, 0.00390625, 0.00390625, 0.00781250, -0.01562500, -0.00390625, 0.00390625, -0.00390625, -0.01171875, 0.00781250, -0.00390625, 0.01171875, 0.00390625, -0.00390625, -0.00390625, 0.00781250, -0.00781250, -0.00781250, 0.00390625, 0.00390625, 0.00000000, 0.00000000, -0.00390625, 0.00390625, -0.00390625, 0.00000000, 0.00781250, -0.01171875, 0.00781250, 0.00781250, -0.00781250, -0.00390625, 0.00390625, 0.00000000, -0.00390625, 0.01171875, 0.00000000, -0.00390625, -0.00390625, 0.01562500, 0.01562500, 0.00000000, 0.00000000, 0.00000000, -0.01171875, 0.00390625, -0.00781250, -0.00390625, -0.00390625, 0.00390625, 0.00000000, -0.00390625, -0.01171875, 0.00390625, -0.00390625, -0.00390625, -0.00390625, -0.00390625, -0.00390625, -0.01171875, 0.00390625, 0.00390625, 0.01171875, -0.01562500, -0.00390625, 0.01171875, -0.00781250, 0.00390625, -0.00781250, 0.01171875, 0.00390625, 0.00390625, -0.00781250, 0.00000000, -0.00390625, -0.00390625, 0.00781250, -0.00390625, 0.01171875, 0.00390625, 0.00000000, 0.00000000, 0.00000000, -0.00390625, 0.00000000, 0.00390625, -0.00390625, 0.00781250, 0.00000000, 0.00390625, 0.00390625, 0.00000000, 0.00000000, 0.00000000, 0.00390625, 0.00390625, 0.00000000, 0.00000000, -0.01562500, -0.00390625, 0.01171875, -0.00781250, 0.01171875, 0.00390625, 0.01171875, 0.00390625, -0.00390625, -0.00390625, 0.01171875, 0.00000000, 0.00000000, 0.00390625, -0.00390625, 0.00390625, -0.00390625, 0.00781250, 0.01953125, -0.00781250, 0.00781250, 0.01171875, -0.00781250, -0.01171875, 0.00000000, 0.00781250, 0.00000000, -0.01953125, -0.00390625, 0.00781250, -0.00781250, 0.00000000, 0.00781250, 0.00000000, -0.00781250, -0.00390625, 0.00781250, 0.00390625, -0.00390625, 0.00000000, 0.00000000, 0.00000000, -0.00390625, 0.00000000, 0.00781250, -0.00781250, 0.00390625, -0.01953125, -0.01171875, -0.00390625, 0.01171875, -0.00390625, 0.00781250, 0.00781250, -0.00781250, 0.00781250, 0.00000000, 0.00390625, -0.00390625, -0.00781250, -0.00390625, -0.00781250, 0.00000000, 0.00390625, -0.00390625, -0.00390625, 0.00000000, 0.00000000, 0.00000000, 0.00390625, 0.00000000, 0.00390625, 0.01171875, 0.00000000, -0.00781250, 0.01171875, 0.00000000, 0.00781250, 0.00781250, -0.01171875, 0.01562500, 0.00390625, 0.00000000, 0.00000000, 0.00000000, -0.00390625, 0.00000000, 0.01171875, 0.00781250, -0.00390625, 0.00000000, -0.00390625, -0.00781250, 0.00000000, 0.00781250, 0.00000000, -0.00390625, 0.00781250, -0.00390625, -0.00781250, -0.01953125, 0.00390625, -0.00390625, -0.00781250, 0.01562500, 0.00000000, -0.00390625, 0.00000000, 0.00781250, 0.00390625, 0.00000000, -0.00390625, 0.00000000, 0.00781250, -0.01171875, 0.01171875, -0.01171875, 0.00781250, -0.00781250, 0.00390625, -0.00390625, 0.00781250, 0.00000000, 0.00781250, 0.00000000, 0.01171875, 0.00000000, 0.00781250, -0.00390625, -0.00781250, 0.01171875, 0.00000000, 0.00781250, 0.00000000, 0.00390625, 0.00781250, 0.00390625, 0.00781250, 0.00000000, 0.00000000, 0.01171875, 0.00390625, -0.00781250, -0.00390625, 0.00781250, 0.01171875, 0.00000000, 0.00000000, 0.00781250, 0.01171875, 0.00781250, 0.00000000, 0.01171875, 0.01562500, 0.00781250, -0.00390625, -0.01562500, 0.00000000, 0.00000000, -0.00781250, -0.00390625, -0.00390625, -0.01562500, -0.00781250, -0.00390625, 0.00781250, -0.00390625, 0.00781250, -0.01171875, -0.00390625, 0.01562500, -0.00781250, 0.00390625, 0.01171875, 0.00000000, 0.00000000, -0.01562500, -0.00390625, -0.00390625, 0.01171875, 0.00781250, -0.00781250, 0.01171875, 0.00000000, -0.00781250, -0.00390625, 0.00390625, 0.00000000, -0.00390625, 0.00000000, 0.00390625, 0.01171875, -0.00781250, 0.00390625, 0.00000000, 0.00390625, -0.00781250, 0.01171875, 0.00781250, -0.01171875, -0.00390625, 0.00390625, 0.01171875, 0.00390625, 0.00000000, -0.00781250, 0.00781250, -0.01562500, -0.00781250, -0.01171875, 0.00000000, 0.00390625, -0.00390625, -0.00781250, -0.00390625, -0.00781250, -0.00781250, 0.00390625, 0.00390625, 0.01171875, 0.00390625, 0.00000000, 0.00390625, -0.00781250, -0.00390625, -0.00781250, -0.01171875, -0.01953125, -0.00390625, -0.01171875, 0.00000000, -0.00781250, 0.00000000, 0.00390625, -0.01171875, 0.00390625, -0.00390625, -0.01171875, 0.01171875, -0.00390625, 0.00781250, 0.00000000, -0.01953125, -0.00781250, -0.01562500, -0.01171875, 0.00000000, 0.00000000, 0.00390625, 0.00000000, -0.00390625, -0.00390625, 0.00390625, 0.00000000, 0.00781250, -0.00390625, -0.00781250, -0.00781250, -0.01562500, -0.00390625, 0.00390625, 0.00390625, 0.00390625, 0.00390625, -0.00390625, 0.00781250, -0.01171875, 0.00000000, 0.01562500, -0.00390625, -0.00781250, -0.00781250, 0.00000000, -0.00390625, 0.00000000, -0.01171875, 0.00000000, -0.01562500, 0.00390625, 0.01562500, -0.01171875, -0.00390625, -0.00390625, 0.01562500, -0.01562500, -0.01562500, 0.00000000, -0.00781250, -0.00781250, 0.00000000, 0.00000000, -0.00781250, 0.00781250, 0.00000000, 0.00781250, -0.00390625, -0.01562500, -0.00781250, 0.00390625, -0.01171875, -0.00781250, -0.01953125, 0.00781250, 0.00390625, 0.00000000, 0.00390625, -0.01171875, -0.00781250, 0.00000000, -0.00390625, -0.00390625, -0.01171875, -0.00781250, 0.00000000, 0.01562500, 0.00000000, -0.01171875, -0.00390625, 0.01171875, -0.00781250, -0.00781250, -0.00390625, -0.00781250, -0.00781250, 0.00000000, -0.00781250, 0.00000000, 0.00781250, -0.01171875, 0.00000000, 0.00781250, 0.00390625, 0.00000000, -0.01562500, -0.00781250, -0.00390625, 0.00000000, -0.00781250, -0.00781250, 0.00000000, 0.00781250, 0.00390625, -0.00390625, -0.00781250, -0.00781250, -0.00781250, -0.00390625, -0.00390625, -0.00781250, -0.00390625, 0.00000000, -0.00781250, 0.00000000, -0.00390625, -0.00390625, -0.00781250, 0.00390625, -0.00781250, 0.00390625, -0.00390625, 0.00000000, -0.00390625, -0.00781250, -0.00781250, 0.00000000, 0.00390625, 0.01171875, 0.00390625, -0.00781250, 0.00000000, -0.01953125, -0.00390625, -0.01562500, 0.00000000, 0.00390625, 0.00000000, -0.00390625, -0.00781250, 0.00781250, -0.00781250, -0.00781250, -0.00390625, 0.00390625, -0.01171875, -0.00781250, 0.00781250, -0.00781250, -0.01171875, 0.00781250, -0.01171875, 0.00390625, 0.00000000, -0.00390625, 0.00390625, -0.01171875, -0.00781250, -0.00781250, -0.00781250, -0.00390625, 0.00000000, 0.01171875, 0.00000000, 0.00390625, -0.00781250, 0.00000000, -0.01171875, -0.00781250, -0.00781250, 0.00390625, -0.00781250, 0.00000000, -0.00781250, -0.00781250, 0.00781250, -0.00781250, -0.00390625, 0.00390625, -0.00390625, -0.00390625, 0.00390625, 0.01171875, -0.00390625, 0.00390625, -0.02343750, -0.00781250, -0.00390625, 0.01171875, -0.00390625, 0.00390625, -0.00781250, 0.00000000, -0.01171875, 0.00781250, -0.00781250, 0.00390625, -0.01562500, -0.00781250, -0.00781250, 0.00000000, -0.01171875, -0.00390625, 0.01171875, 0.00390625, -0.00390625, 0.00000000, -0.00781250, 0.00000000, -0.00390625, -0.01953125, -0.01171875, 0.00000000, 0.00390625, -0.00781250, -0.01171875, -0.00390625, 0.00000000, -0.01171875, 0.00000000, 0.01171875, 0.00390625, 0.00000000, 0.00000000, -0.00390625, -0.01562500, -0.01171875, -0.01562500, 0.00000000, 0.00000000, 0.00000000, -0.01171875, -0.01171875, -0.00781250, -0.01562500, -0.00390625, -0.00390625, 0.00781250, 0.00390625, -0.00781250, 0.00000000, -0.00390625, 0.01171875, -0.00781250, -0.02343750, 0.01171875, -0.01953125, 0.00000000, 0.00781250, -0.00781250, -0.00390625, 0.00000000, -0.01171875, -0.00390625, -0.01171875, -0.01171875, 0.00000000, -0.01562500, 0.00000000, -0.01171875, -0.00390625, -0.01171875, -0.01562500, -0.00781250, 0.00000000, -0.00781250, -0.00781250, -0.00390625, -0.00781250, -0.00390625, -0.00781250, 0.00781250, 0.00781250, -0.00390625, 0.00781250, 0.00000000, -0.00390625, -0.01171875, 0.00000000, -0.00390625, -0.00390625, -0.00390625, -0.00390625, -0.01171875, 0.00000000, -0.00390625, -0.00781250, -0.01171875, 0.00390625, 0.00000000, 0.00000000, -0.00390625, -0.00781250, -0.01562500, 0.00781250, -0.00390625, -0.00781250, -0.00781250, -0.00390625, -0.00390625, -0.01171875, -0.01171875, -0.00781250, -0.00390625, 0.00390625, -0.01171875, 0.00390625, -0.00390625, -0.00390625, -0.00390625, -0.01171875, -0.00390625, -0.01171875, 0.00390625, -0.01562500, -0.00781250, -0.00781250, -0.01171875, -0.00781250, -0.01562500, 0.00390625, -0.00781250, -0.00390625, -0.01562500, 0.00000000, -0.00781250, 0.00781250, 0.00390625, 0.00000000, -0.01562500, -0.01171875, 0.00000000, -0.00781250, 0.00000000, -0.01562500, 0.00000000, 0.00390625, -0.01562500, -0.00781250, -0.01171875, -0.00390625, -0.01562500, -0.00781250, 0.00781250, -0.01171875, 0.00781250, -0.00781250, 0.00000000, -0.01562500, 0.00390625, -0.00390625, 0.00781250, -0.00390625, -0.00781250, -0.01171875, -0.00781250, -0.00781250, 0.00781250, -0.00390625, -0.01562500, -0.00781250, -0.01171875, -0.02734375, -0.00390625, -0.01171875, 0.00000000, -0.01171875, -0.00390625, 0.00000000, -0.01562500, -0.00390625, 0.00000000, -0.01562500, -0.00390625, -0.00781250, -0.00390625, -0.00781250, -0.02343750, -0.01171875, 0.00000000, -0.01562500, 0.00390625, -0.00390625, -0.00781250, -0.00390625, -0.00781250, -0.00781250, -0.01171875, -0.00390625, 0.00390625, -0.00390625, -0.01171875, -0.00390625, -0.01953125, -0.00781250, -0.00390625, -0.00781250, -0.00781250, 0.00000000, 0.00000000, -0.00390625, -0.00390625, -0.00781250, 0.00000000, 0.00000000, -0.01171875, -0.00781250, -0.00781250, -0.00390625, -0.01562500, 0.00390625, -0.00781250, -0.01171875, 0.00390625, -0.01953125, -0.01953125, -0.03125000, 0.00000000, 0.00390625, -0.00781250, -0.01171875, -0.00390625, 0.00000000, 0.00000000, -0.01171875, 0.00000000, -0.01562500, -0.01171875, 0.00000000, 0.00000000, 0.00000000, -0.01171875, 0.00000000, -0.00390625, -0.00781250, 0.00390625, -0.00781250, -0.00781250, -0.00390625, -0.00390625, -0.00390625, -0.00390625, -0.00390625, -0.01171875, -0.01171875, -0.00390625, -0.00781250, -0.00781250, -0.00781250, 0.00000000, 0.00781250, -0.01171875, 0.00000000, -0.00781250, -0.01171875, 0.00000000, 0.00390625, 0.00000000, -0.00781250, -0.00390625, -0.01562500, 0.00000000, 0.00000000, 0.00000000, 0.00390625, -0.00781250, -0.01562500, -0.00781250, -0.01171875, -0.01953125, 0.00390625, 0.00390625, 0.00000000, -0.00390625, 0.00390625, -0.01171875, -0.00390625, -0.01171875, -0.00390625, -0.00390625, 0.01171875, 0.00000000, -0.00390625, -0.01171875, -0.00781250, -0.00781250, 0.00781250, 0.00000000, 0.00000000, -0.01562500, -0.00390625, 0.00000000, -0.00781250, -0.00390625, 0.00000000, -0.00781250, 0.00000000, -0.00781250, -0.00781250, -0.01562500, 0.00000000, -0.01562500, 0.00390625, 0.00390625, -0.00781250, -0.00390625, -0.00390625, -0.00781250, -0.01171875, -0.00781250, -0.00390625, 0.00000000, -0.00781250, -0.01171875, -0.00781250, -0.00781250, -0.01171875, 0.00000000, 0.00390625, 0.00390625, -0.00781250, -0.00781250, -0.00390625, -0.02343750, 0.00000000, -0.00390625, -0.02343750, -0.00781250, -0.00390625, 0.00390625, -0.01562500, 0.00781250, -0.01171875, -0.00390625, -0.01171875, 0.00000000, -0.01953125, -0.00390625, 0.00000000, 0.00000000, -0.01171875, 0.00781250, -0.00781250, -0.00781250, -0.00781250, 0.00390625, -0.01562500, -0.01171875, -0.00781250, -0.01171875, -0.00390625, 0.00390625, -0.00781250, -0.00390625, -0.01171875, -0.01171875, 0.00000000, -0.00781250, -0.01171875, -0.00390625, -0.00781250, -0.00390625, 0.01171875, -0.00390625, -0.00390625, -0.01171875, 0.00781250, -0.00781250, 0.00000000, -0.00781250, -0.00781250, -0.00781250, 0.00390625, -0.00390625, 0.00000000, -0.01171875, -0.00781250, -0.00390625, 0.00000000, -0.01171875, 0.00000000, 0.00390625, -0.01171875, -0.01171875, 0.00000000, -0.00781250, -0.00390625, -0.00390625, 0.01171875, 0.00781250, 0.00390625, -0.00390625, -0.00390625, -0.01171875, -0.01171875, -0.02343750, -0.01953125, -0.00781250, -0.00390625, -0.00781250, -0.01562500, 0.00390625, 0.00000000, -0.00781250, 0.00781250, -0.00390625, -0.00390625, -0.00390625, 0.01171875, -0.01171875, 0.01953125, 0.00390625, -0.00390625, -0.00781250, -0.00781250, 0.00781250, 0.00000000, 0.00781250, 0.01171875, -0.00781250, 0.00781250, 0.00000000, -0.00390625, 0.01562500, -0.00390625, -0.00781250, -0.00390625, -0.00781250, -0.01171875, -0.01171875, -0.00390625, -0.00781250, -0.01953125, 0.00781250, 0.01171875, -0.00390625, 0.01171875, -0.02343750, -0.00781250, -0.00390625, 0.01953125, 0.00000000, -0.01953125, 0.01562500, 0.00000000, 0.01562500, 0.00781250, -0.00390625, -0.00390625, -0.00390625, 0.00390625, -0.00781250, 0.00000000, -0.00390625, -0.00781250, -0.00390625, 0.00000000, 0.01562500, -0.00781250, -0.00390625, 0.00000000, 0.00781250, 0.00390625, 0.01171875, -0.00781250, 0.00000000, 0.00000000, 0.00000000, 0.00000000, -0.00390625, 0.01562500, 0.01953125, -0.01171875, -0.01562500, 0.00781250, -0.00781250, 0.00390625, 0.01171875, 0.00000000, -0.00390625, 0.01171875, -0.00781250, 0.00390625, 0.01171875, 0.01171875, 0.00781250, 0.00000000, 0.00390625, 0.00781250, 0.00390625, 0.00781250, -0.01171875, 0.00000000, 0.00390625, 0.01171875, -0.00390625, 0.00390625, 0.00000000, 0.00000000, 0.00000000, 0.00781250, -0.00390625, 0.00781250, 0.00000000, -0.00781250, 0.00000000, -0.00781250, 0.01171875, -0.00781250, -0.00781250, -0.01171875, -0.01562500, -0.00390625, -0.00390625, 0.00390625, -0.01562500, -0.01562500, -0.00781250, -0.01562500, 0.00390625, -0.00781250, -0.00390625, 0.00000000, 0.00781250, -0.00781250, 0.01171875, 0.00000000, 0.00781250, 0.00781250, -0.00390625, 0.00000000, 0.00781250, 0.00000000, 0.00390625, 0.00390625, -0.00390625, 0.00781250, -0.01171875, 0.00781250, 0.00000000, -0.00390625, -0.01562500, -0.00390625, 0.00390625, 0.00781250, 0.00000000, 0.00781250, -0.00781250, 0.01171875, 0.00000000, -0.01171875, 0.00781250, 0.00000000, -0.00781250, -0.00781250, -0.00390625, 0.00390625, -0.01171875, 0.00390625, -0.00781250, 0.00000000, 0.00000000, 0.01562500, -0.00781250, 0.01171875, -0.00781250, 0.01171875, -0.02343750, 0.00000000, -0.00390625, -0.01171875, 0.00390625, -0.00390625, 0.01171875, -0.00390625, -0.00781250, 0.00390625, -0.01171875, 0.00781250, 0.00000000, 0.00000000, -0.00390625, -0.01562500, -0.00390625, -0.01171875, 0.00390625, 0.00000000, -0.00781250, 0.00390625, 0.00390625, 0.00000000, 0.00000000, -0.01562500, 0.00390625, 0.00781250, -0.00781250, 0.00000000, -0.01171875, 0.00781250, 0.01171875, -0.01953125, -0.01171875, 0.01171875, -0.00781250, 0.00390625, 0.01171875, -0.00390625, -0.00390625, 0.00781250, -0.00390625, 0.00390625, 0.01171875, 0.01171875, 0.00390625, -0.01171875, 0.00000000, 0.00000000, -0.00390625, 0.00390625, -0.01171875, -0.00781250, 0.00000000, 0.00000000, -0.00781250, 0.00000000, -0.01171875, -0.00390625, 0.00000000, 0.00390625, 0.00390625, 0.00000000, 0.00390625, -0.01171875, -0.00781250, -0.00390625, 0.01171875, 0.00000000, -0.00781250, 0.00390625, -0.00781250, 0.00000000, 0.00000000, 0.00000000, -0.00781250, -0.01171875, -0.00390625, -0.00390625, 0.01171875, -0.01171875, 0.00781250, 0.00000000, 0.00781250, -0.00390625, 0.00390625, 0.00000000, 0.00390625, -0.00390625, 0.00781250, -0.00781250, -0.00390625, 0.00000000, 0.00000000, 0.00781250, 0.00781250, 0.00781250, -0.00781250, 0.00781250, 0.00390625, 0.00390625, -0.00781250, 0.00000000, 0.00000000, 0.00781250, 0.00390625, 0.00390625, 0.00000000, 0.01171875, -0.00781250, -0.01562500, 0.00000000, 0.00390625, -0.00390625, -0.01171875, -0.00390625, -0.01171875, -0.01171875, -0.00781250, -0.00781250, -0.00390625, -0.00390625, 0.01953125, -0.01171875, 0.00781250, -0.01171875, 0.00000000, -0.00781250, 0.00781250, -0.00781250, -0.01171875, 0.00390625, 0.00000000, 0.00390625, 0.01171875, -0.00781250, -0.00390625, -0.00781250, 0.00781250, -0.00390625, 0.00781250, 0.00000000, -0.00390625, -0.01562500, 0.00390625, 0.00390625, -0.00390625, -0.00390625, 0.00000000, 0.00000000, -0.00390625, 0.00781250, -0.01562500, 0.00781250, -0.00390625, -0.00390625, -0.00390625, 0.00390625, 0.00781250, 0.00781250, -0.00781250, -0.00781250, 0.00781250, -0.00390625, 0.00390625, 0.00781250, -0.00390625, -0.00390625, 0.00781250, -0.00390625, -0.00390625, 0.00390625, 0.00781250, 0.00000000, -0.00781250, 0.00000000, 0.00781250, 0.00000000, 0.00000000, 0.00781250, 0.00000000, -0.00781250, 0.00390625, -0.00781250, -0.00390625, -0.00390625, -0.00390625, 0.00781250, 0.01171875, 0.00000000, 0.00000000, -0.00781250, -0.01171875, -0.00390625, 0.00000000, 0.00000000, 0.00781250, -0.00390625, -0.00390625, 0.00781250, -0.00781250, -0.00390625, -0.00390625, -0.00390625, -0.00781250, 0.00000000, -0.01171875, 0.01171875, -0.00781250, 0.00000000, -0.01171875, 0.01171875, 0.00390625, 0.00000000, -0.01171875, 0.00000000, 0.00390625, 0.00390625, -0.00781250, 0.00390625, 0.00390625, -0.01171875, 0.00781250, 0.00781250, 0.01562500, -0.01562500, 0.00781250, 0.00390625, -0.01171875, -0.00781250, -0.00390625, 0.00000000, 0.00000000, 0.00000000, 0.00000000, -0.01171875, 0.00390625, 0.00390625, -0.00390625, 0.00000000, -0.00781250, -0.00390625, -0.01171875, -0.01953125, -0.01562500, -0.00390625, -0.00390625, 0.00000000, 0.00781250, -0.01562500, 0.00000000, -0.00390625, 0.00390625, -0.00781250, 0.00390625, -0.01171875, 0.00390625, -0.00781250, -0.00781250, 0.01171875, -0.00390625, 0.00390625, -0.00390625, -0.00781250, -0.00390625, 0.00000000, 0.00390625, 0.00000000, 0.00000000, -0.00390625, -0.00781250, -0.00390625, 0.00390625, 0.00390625, -0.00390625, -0.00390625, 0.00000000, 0.00000000, 0.01171875, 0.00781250, 0.00390625, 0.00781250, 0.00781250, -0.00390625, -0.00390625, -0.00781250, 0.00000000, 0.00390625, -0.00390625, -0.00390625, 0.00781250, -0.01171875, 0.00390625, 0.00000000, 0.00000000, 0.00781250, 0.00781250, 0.00000000, 0.00781250, 0.00390625, 0.00000000, 0.00000000, 0.00000000, -0.00390625, -0.00390625, -0.00781250, -0.00390625, -0.00390625, -0.00390625, -0.01562500, 0.00781250, -0.00781250, -0.00781250, -0.01171875, -0.00781250, 0.01171875, 0.00390625, -0.00390625, -0.00390625, 0.01171875, -0.01171875, -0.01562500, -0.01953125, 0.00000000, -0.01562500, -0.00390625, -0.00390625, -0.00781250, 0.00000000, -0.00781250, -0.00390625, -0.01171875, 0.00390625, -0.01171875, -0.01171875, 0.00000000, -0.00390625, 0.00781250, 0.00781250, 0.00390625, 0.00390625, 0.00000000, -0.00390625, 0.00781250, 0.00390625, -0.00781250, 0.00000000, -0.00390625, 0.00390625, -0.00390625, 0.00000000, 0.00000000, 0.00390625, -0.02734375, 0.00781250, -0.00390625, -0.00781250, -0.00781250, 0.00000000, -0.00390625, 0.00390625, 0.00000000, 0.00390625, -0.00390625, 0.00000000, 0.01171875, -0.00390625, 0.00781250, -0.00390625, -0.00390625, -0.00390625, -0.01953125, -0.00781250, -0.00390625, 0.00781250, 0.00390625, -0.00781250, -0.01171875, 0.00000000, 0.00000000, 0.00781250, -0.01562500, 0.00781250, -0.01562500, 0.00000000, 0.00390625, -0.00781250, 0.00781250, -0.00781250, -0.01171875, -0.00781250, -0.00781250, 0.00390625, -0.01953125, 0.00781250, 0.00781250, -0.00390625, 0.00000000, -0.01562500, 0.00000000, 0.00390625, -0.00390625, 0.00000000, -0.00390625, -0.01171875, 0.00000000, -0.00390625, 0.01171875, 0.00000000, -0.00390625, -0.00781250, -0.01562500, -0.00390625, 0.00000000, -0.00390625, 0.00390625, -0.00781250, -0.00781250, 0.00000000, 0.00000000, 0.00000000, 0.00000000, -0.00390625, 0.00000000, 0.00000000, 0.00390625, -0.00781250, 0.00000000, 0.00781250, -0.00781250, -0.00781250, -0.01171875, -0.00390625, 0.00390625, 0.00000000, 0.00781250, -0.00781250, -0.01562500, -0.00781250, -0.01562500, 0.01171875, 0.00000000, -0.01171875, 0.00390625, -0.00781250, -0.00781250, -0.00390625, -0.00390625, -0.00781250, -0.01171875, -0.01171875, -0.00390625, -0.00781250, 0.00000000, -0.00390625, -0.00390625, 0.00000000, -0.01562500, 0.00000000, -0.00390625, 0.00390625, -0.00781250, -0.01562500, 0.00000000, 0.00000000, -0.00390625, -0.00781250, -0.00390625, -0.00781250, 0.00000000, -0.00390625, 0.00390625, 0.00390625, 0.00390625, -0.01171875, -0.00390625, 0.00781250, -0.00390625, 0.01171875, -0.01562500, 0.01562500, -0.01562500, 0.00781250, 0.00000000, -0.00781250, -0.00781250, -0.01171875, 0.00781250, 0.00000000, 0.00390625, 0.00390625, -0.00390625, 0.00390625, 0.00390625, -0.01171875, 0.00000000, 0.00781250, -0.00390625, -0.01562500, -0.00390625, -0.00390625, -0.00781250, -0.00781250, -0.00781250, -0.01562500, -0.00390625, 0.01562500, -0.00390625, 0.00781250, -0.01171875, 0.00781250, -0.01171875, 0.00390625, -0.01171875, 0.00000000, 0.00390625, -0.00781250, 0.00781250, -0.00781250, -0.00781250, -0.01171875, 0.00000000, 0.00781250, 0.00390625, 0.00781250, -0.00390625, -0.00390625, -0.01171875, -0.00390625, 0.00000000, 0.00390625, -0.00781250, -0.00781250, -0.00781250, 0.00390625, 0.00781250, 0.00000000, -0.00390625, -0.00390625, -0.01171875, 0.00000000, -0.01171875, 0.00390625, 0.00000000, -0.01171875, -0.01171875, 0.00390625, -0.00781250, 0.00781250, 0.00000000, -0.00390625, -0.00781250, 0.00000000, 0.00000000, -0.01171875, 0.00781250, 0.00390625, 0.00781250, -0.01562500, -0.00390625, 0.00000000, -0.00781250, 0.00390625, 0.00390625, -0.00390625, -0.00390625, 0.00000000, -0.00781250, -0.00390625, 0.00000000, -0.00781250, 0.00000000, 0.00390625, 0.00390625, 0.00390625, -0.00390625, -0.01171875, -0.01171875, -0.00390625, -0.00781250, -0.00781250, 0.00000000, 0.00000000, 0.01171875, 0.00781250, 0.00000000, 0.00000000, -0.01171875, 0.01562500, -0.00781250, -0.00390625, 0.00000000, -0.00390625, 0.00390625, -0.00781250, -0.00390625, -0.01171875, 0.00390625, -0.00781250, 0.00390625, 0.00000000, -0.00390625, -0.00781250, 0.01171875, -0.00390625, -0.01171875, 0.00000000, -0.00781250, 0.00000000, 0.00390625, 0.00390625, 0.00781250, -0.01171875, -0.00781250, 0.00390625, -0.00390625, 0.01171875, 0.00781250, 0.01171875, 0.00390625, 0.01171875, 0.00000000, -0.01171875, 0.00000000, -0.00390625, 0.00000000, -0.00781250, -0.01562500, -0.00781250, 0.01171875, 0.00000000, -0.00781250, 0.00781250, -0.01171875, 0.00781250, -0.00390625, 0.00781250, -0.00781250, 0.00000000, -0.00781250, 0.00000000, -0.00390625, -0.00781250, 0.00781250, -0.00390625, 0.00390625, 0.00000000, -0.01171875, -0.00390625, 0.00000000, 0.00781250, -0.00390625, -0.00390625, -0.00390625, -0.01953125, 0.00000000, 0.00000000, 0.01171875, -0.00390625, -0.00781250, 0.00781250, -0.01953125, -0.00390625, 0.00781250, 0.00781250, 0.00390625, 0.00000000, 0.00000000, -0.01953125, -0.01562500, 0.00781250, -0.00781250, 0.00781250, -0.00390625, 0.00781250, 0.00781250, 0.00781250, 0.00781250, -0.01171875, 0.00781250, 0.00781250, 0.00390625, 0.00781250, 0.00390625, 0.00390625, -0.00781250, -0.00390625, 0.00781250, 0.00000000, 0.00000000, 0.00000000, 0.00000000, -0.00781250, -0.00781250, 0.01171875, -0.01562500, -0.00390625, -0.01953125, 0.00390625, 0.01562500, 0.01953125, 0.00781250, 0.00390625, 0.01562500, -0.00390625, 0.00000000, -0.00781250, 0.00390625, 0.00000000, -0.00390625, -0.00781250, -0.00781250, -0.00390625, 0.01562500, -0.00390625, 0.00390625, -0.01171875, 0.00390625, -0.02343750, -0.00390625, 0.00781250, 0.00000000, 0.00000000, 0.00781250, 0.00000000, 0.00000000, -0.00390625, 0.00000000, 0.00390625, -0.00390625, 0.00390625, 0.00390625, 0.00000000, -0.00781250, 0.00390625, 0.00390625, 0.01171875, 0.00000000, 0.00390625, 0.01171875, -0.01171875, 0.00390625, 0.00000000, -0.00781250, -0.00390625, 0.00000000, 0.00390625, 0.00000000, 0.00781250, 0.00390625, -0.00390625, 0.00390625, -0.01562500, 0.00390625, -0.01171875, -0.00781250, -0.01171875, -0.00390625, 0.00390625, -0.00390625, 0.00390625, -0.01171875, 0.01171875, -0.00390625, 0.00390625, 0.00000000, -0.00390625, -0.00781250, 0.00390625, 0.00000000, 0.00000000, 0.00781250, -0.00390625, 0.00390625, -0.00781250, -0.00781250, -0.00390625, -0.00390625, 0.00390625, 0.00781250, -0.00390625, -0.01562500, -0.01171875, 0.00390625, -0.00390625, 0.00000000, 0.01171875, 0.00000000, 0.00000000, -0.01562500, 0.00000000, 0.01171875, -0.00390625, -0.00390625, 0.00781250, 0.00000000, -0.01562500, -0.01171875, -0.00390625, 0.00781250, 0.00000000, 0.00390625, 0.01171875, 0.01171875, 0.00000000, 0.01171875, -0.00781250, 0.00390625, 0.00781250, -0.00781250, 0.00000000, 0.00000000, 0.00781250, 0.00000000, 0.00000000, -0.00781250, 0.00781250, 0.00000000, 0.00000000, 0.00390625, -0.00781250, 0.00000000, 0.00390625, 0.00390625, 0.00000000, -0.01562500, 0.00000000, 0.00390625, 0.00390625, 0.00781250, 0.00781250, 0.00000000, 0.00390625, 0.00781250, -0.00781250, 0.01171875, -0.00390625, -0.00781250, 0.00390625, 0.00000000, -0.01171875, 0.00000000, -0.01171875, 0.00390625, -0.01171875, -0.00781250, -0.01953125, 0.00390625, -0.00781250, 0.00390625, -0.00390625, 0.00000000, 0.00781250, -0.00781250, 0.00781250, 0.00781250, 0.00000000, 0.00781250, 0.00781250, 0.00390625, 0.01171875, -0.00781250, 0.00781250, -0.00390625, 0.00781250, -0.00781250, 0.00781250, 0.00781250, -0.00781250, 0.00000000, 0.00390625, 0.00390625, 0.00000000, 0.00000000, 0.00390625, 0.01562500, 0.01171875, 0.00390625, -0.00390625, 0.00781250, 0.00390625, -0.01171875, -0.00781250, 0.00390625, -0.02343750, 0.00000000, 0.00000000, -0.01562500, 0.00390625, -0.01171875, 0.01562500, 0.00390625, 0.00390625, -0.01171875, 0.00000000, 0.00390625, 0.00000000, 0.00000000, 0.00781250, 0.00000000, -0.00390625, 0.00390625, 0.00000000, -0.00781250, 0.00000000, -0.00781250, 0.00390625, 0.00781250, -0.00781250, -0.02343750, -0.00781250, -0.01171875, -0.01171875, 0.01562500, 0.00390625, 0.00390625, -0.00781250, -0.01171875, 0.00000000, 0.01562500, -0.00390625, 0.00390625, -0.00390625, -0.00781250, -0.00781250, 0.00390625, 0.00390625, 0.01171875, 0.00000000, 0.00781250, 0.00781250, 0.01171875, 0.00781250, 0.00781250, 0.00000000, 0.00390625, 0.01171875, 0.00000000, -0.00390625, 0.01171875, 0.00390625, 0.00781250, -0.00390625, -0.00390625, 0.01562500, 0.00000000, 0.00000000, 0.01171875, -0.00781250, -0.00781250, 0.00390625, 0.00390625, 0.00781250, 0.00000000, 0.00000000, 0.01562500, 0.01171875, 0.00781250, 0.01562500, -0.00390625, -0.00390625, -0.00390625, 0.00000000, 0.00390625, -0.00390625, -0.01171875, 0.00000000, 0.00390625, -0.00781250, 0.00390625, 0.00390625, 0.00000000, 0.00000000, 0.00000000, -0.00390625, -0.00390625, -0.01171875, 0.00000000, -0.00390625, 0.00390625, -0.00781250, 0.00390625, -0.00781250, 0.00781250, 0.00781250, 0.00781250, -0.01562500, 0.01171875, 0.00781250, -0.00390625, 0.01953125, -0.01171875, 0.00390625, -0.01171875, -0.00390625, -0.00781250, -0.00781250, -0.00390625, -0.00390625, -0.00390625, 0.00781250, -0.00390625, 0.01171875, -0.00390625, 0.00390625, 0.00000000, 0.00000000, 0.00000000, -0.00390625, -0.00781250, -0.01171875, -0.01953125, -0.00781250, -0.00390625, -0.00781250, 0.00390625, -0.01171875, -0.00781250, 0.00781250, -0.00390625, 0.00000000, -0.00781250, -0.00781250, -0.01171875, 0.00000000, -0.00781250, -0.01953125, 0.00390625, -0.00390625, 0.00781250, 0.00000000, -0.01171875, -0.01171875, 0.00000000, -0.00781250, -0.01171875, 0.00390625, -0.01562500, -0.00781250, -0.00390625, -0.00390625, 0.00781250, -0.01562500, -0.00781250, -0.00390625, 0.00000000, -0.00781250, 0.00781250, -0.01171875, 0.00000000, -0.00390625, 0.00000000, -0.01171875, -0.00390625, 0.00390625, 0.00000000, -0.01953125, -0.01171875, 0.00000000, -0.00781250, 0.00390625, 0.00390625, -0.01171875, -0.00390625, 0.01171875, -0.00390625, -0.01562500, 0.00000000, -0.00781250, -0.01171875, -0.00781250, 0.00781250, 0.00000000, 0.00000000, 0.00390625, -0.00781250, -0.01562500, -0.01953125, 0.00000000, -0.01171875, -0.00781250, -0.02343750, -0.01562500, -0.00390625, 0.00390625, 0.00000000, 0.00390625, -0.00390625, -0.00781250, -0.00390625, -0.00390625, 0.00000000, -0.00781250, -0.02343750, -0.00781250, 0.00000000, -0.00390625, 0.00781250, 0.00390625, -0.00781250, -0.01171875, -0.00390625, -0.01171875, -0.00781250, -0.01953125, -0.00390625, -0.00390625, 0.00390625, -0.01562500, 0.00781250, -0.00781250, -0.01562500, -0.00390625, -0.00390625, 0.00000000, -0.00390625, -0.00390625, -0.00781250, 0.00390625, 0.00000000, 0.00390625, -0.00781250, 0.00390625, -0.00390625, -0.00781250, -0.00781250, 0.00390625, 0.00000000, 0.00390625, 0.00000000, 0.00390625, 0.00000000, -0.00390625, 0.00000000, 0.00781250, -0.00390625, -0.01562500, -0.00781250, -0.00390625, -0.00390625, -0.00390625, -0.01171875, -0.00781250, 0.01171875, -0.00390625, 0.00390625, 0.00000000, -0.00781250, 0.00000000, -0.01171875, -0.00781250, -0.00781250, 0.00390625, 0.00390625, -0.00390625, 0.01171875, -0.00781250, 0.00781250, -0.00781250, -0.01171875, -0.00390625, -0.00781250, 0.00000000, -0.01171875, 0.00390625, -0.01171875, 0.00390625, 0.00000000, -0.00390625, 0.00390625, -0.01953125, 0.00000000, 0.00781250, -0.00390625, 0.01953125, 0.00000000, -0.00390625, -0.01171875, -0.00390625, 0.00000000, 0.00000000, -0.00781250, 0.00000000, 0.00000000, -0.01953125, -0.01171875, 0.00390625, -0.00781250, 0.00781250, 0.00000000, -0.00390625, -0.00781250, -0.00390625, -0.00390625, 0.00000000, 0.00781250, 0.01171875, -0.00781250, -0.00781250, -0.00781250, 0.00390625, -0.00390625, -0.00390625, 0.00781250, -0.01562500, -0.01171875, 0.00781250, -0.01171875, -0.00390625, -0.01171875, -0.00390625, 0.00390625, 0.00000000, -0.00390625, -0.00390625, -0.00390625, -0.00390625, 0.00781250, -0.00781250, 0.00781250, 0.00000000, -0.01171875, 0.00000000, 0.00390625, 0.00781250, 0.00390625, -0.00390625, -0.00781250, 0.00390625, -0.00390625, -0.01562500, 0.00390625, -0.00781250, -0.00781250, 0.00000000, -0.00390625, -0.00781250, -0.00781250, -0.00781250, 0.00390625, -0.00390625, -0.00390625, -0.00781250, -0.00390625, 0.00781250, -0.00781250, -0.00781250, 0.00390625, 0.01171875, -0.01171875, 0.00000000, 0.00000000, -0.01171875, 0.00000000, -0.00390625, 0.00000000, 0.00390625, -0.00390625, 0.00000000, 0.00390625, -0.00390625, -0.00781250, -0.00781250, -0.00781250, -0.00390625, -0.01171875, -0.01171875, -0.01562500, -0.01171875, 0.00390625, -0.00781250, -0.00390625, 0.00000000, -0.01171875, -0.00390625, -0.01562500, 0.00390625, -0.01562500, -0.01171875, -0.01953125, 0.00390625, -0.00781250, -0.01171875, 0.00781250, -0.00390625, 0.01171875, -0.00390625, -0.01171875, -0.01171875, 0.00000000, 0.00390625, -0.01171875, 0.00000000, -0.01562500, -0.00781250, -0.01562500, -0.00390625, 0.00781250, -0.00781250, -0.00390625, 0.00000000, -0.00390625, 0.00000000, -0.00390625, -0.00781250, 0.00390625, 0.00000000, 0.00000000, -0.01953125, -0.00390625, 0.00000000, 0.01171875, -0.01562500, -0.00390625, 0.00781250, 0.00000000, 0.00000000, 0.00390625, -0.01171875, -0.00390625, 0.00390625, 0.00000000, -0.00781250, 0.00390625, 0.00781250, -0.00781250, -0.01171875, -0.00390625, 0.00781250, 0.00390625, -0.00390625, -0.00390625, -0.01562500, -0.01171875, 0.01171875, -0.00781250, 0.00390625, -0.01953125, -0.01562500, -0.00781250, 0.00390625, -0.00781250, 0.00390625, -0.00390625, 0.00000000, 0.00390625, -0.01171875, 0.01171875, 0.00000000, -0.00781250, 0.00000000, 0.00781250, -0.00781250, 0.00000000, -0.00390625, -0.00390625, -0.00390625, 0.00000000, -0.01171875, 0.01562500, -0.01171875, 0.00781250, 0.00390625, 0.00000000, -0.01171875, -0.00781250, -0.00781250, -0.01171875, -0.00781250, -0.00781250, -0.00390625, 0.01562500, 0.00390625, -0.01171875, 0.00000000, -0.00390625, 0.00781250, -0.00390625, 0.00390625, 0.00390625, -0.00390625, -0.01171875, 0.00390625, 0.00390625, 0.00781250, 0.00000000, 0.00390625, -0.00390625, 0.01171875, 0.00781250, -0.00781250, 0.00390625, 0.00390625, -0.01562500, 0.00000000, -0.00390625, 0.00390625, -0.01171875, 0.00000000, -0.01171875, -0.00390625, -0.00390625, 0.00781250, 0.00000000, 0.00000000, -0.00781250, 0.00000000, -0.00390625, -0.00390625, -0.00390625, -0.00781250, 0.00000000, 0.01171875, 0.00000000, -0.00390625, 0.00390625, 0.00000000, 0.00000000, 0.00390625, -0.00390625, 0.00000000, -0.00390625, -0.00390625, 0.00000000, -0.00390625, 0.00781250, 0.00390625, -0.00781250, 0.00390625, -0.01953125, 0.00781250, 0.00781250, -0.00390625, -0.00390625, -0.00390625, 0.00000000, -0.00390625, 0.00781250, 0.00390625, 0.00390625, -0.01171875, 0.00390625, 0.00000000, -0.01562500, 0.00781250, 0.00000000, -0.00390625, 0.01171875, 0.00390625, 0.00000000, 0.01171875, 0.00000000, 0.00390625, 0.00000000, 0.00000000, 0.00390625, -0.01171875, -0.00390625, 0.01171875, 0.00000000, -0.01171875, -0.00781250, 0.00390625, 0.00390625, 0.00000000, -0.01953125, 0.00000000, 0.00781250, 0.00000000, 0.00781250, -0.00781250, -0.00781250, -0.00781250, 0.00781250, -0.00390625, 0.01171875, 0.00781250, -0.01171875, -0.01171875, -0.00390625, 0.00390625, 0.00000000, 0.00390625, 0.00390625, 0.00000000, -0.00390625, -0.00781250, -0.00781250, 0.00390625, 0.00781250, 0.01171875, 0.00000000, -0.01171875, 0.00390625, 0.00781250, 0.00390625, 0.00390625, 0.00781250, 0.01953125, 0.00000000, -0.00390625, -0.00390625, 0.00390625, 0.00000000, 0.01171875, -0.01171875, -0.00390625, -0.00781250, 0.00000000, 0.00000000, 0.00781250, -0.00390625, 0.01171875, -0.00390625, -0.00781250, 0.01171875, -0.00390625, 0.00390625, 0.00000000, -0.00390625, 0.00781250, 0.00390625, 0.00390625, 0.00390625, 0.00000000, -0.00781250, 0.00390625, -0.00781250, -0.00390625, 0.00000000, 0.00000000, 0.01171875, 0.00781250, 0.00000000, 0.00781250, 0.00000000, -0.01171875, 0.00390625, 0.00000000, 0.00000000, 0.00000000, -0.00390625, -0.00781250, 0.00390625, 0.00000000, -0.00781250, 0.00390625, -0.00781250, 0.00000000, 0.00000000, 0.00000000, 0.00000000, -0.00781250, -0.00390625, 0.01562500, 0.01171875, -0.00390625, 0.00000000, -0.00390625, 0.00781250, 0.00000000, 0.00000000, 0.00000000, 0.00390625, -0.00781250, 0.00390625, -0.00390625, 0.00390625, -0.01562500, 0.00000000, -0.00781250, -0.01562500, -0.00781250, -0.00390625, 0.00000000, -0.00781250, 0.00000000, 0.00000000, 0.00390625, -0.00390625, 0.01171875, -0.00390625, -0.01171875, -0.00390625, -0.01562500, 0.01171875, 0.00390625, 0.01171875, 0.00000000, -0.00390625, -0.00390625, 0.00390625, 0.00781250, -0.01171875, -0.00390625, 0.00390625, -0.00781250, 0.00390625, 0.00390625, -0.00781250, -0.00390625, 0.00000000, -0.01953125, -0.00390625, -0.00390625, 0.00000000, -0.01171875, -0.00390625, 0.00390625, -0.00781250, -0.00781250, 0.00390625, 0.00781250, 0.01562500, 0.00000000, 0.00000000, 0.00781250, -0.00390625, 0.00781250, 0.00000000, -0.00390625, -0.00390625, -0.00390625, 0.00390625, 0.00000000, 0.01171875, 0.00000000, -0.01171875, 0.01562500, 0.00390625, 0.00781250, 0.00000000, 0.01562500, -0.01562500, 0.00000000, 0.00390625, -0.00390625, 0.00000000, 0.00390625, 0.00781250, 0.01171875, 0.00781250, 0.01171875, 0.01562500, 0.00000000, 0.01171875, -0.01171875, 0.00390625, 0.01562500, -0.01171875, 0.00781250, 0.00000000, -0.01562500, -0.01562500, 0.00390625, 0.00000000, -0.00390625, 0.00000000, 0.00781250, -0.00781250, 0.00781250, -0.01171875, 0.00781250, 0.00390625, -0.00781250, -0.00390625, -0.01171875, 0.00390625, -0.00390625, 0.00781250, 0.00390625, -0.00781250, 0.00000000, -0.00781250, 0.00781250, -0.00390625, 0.00781250, -0.00390625, 0.00390625, -0.01171875, 0.00781250, 0.00390625, -0.00390625, 0.00390625, 0.01171875, -0.01171875, 0.00390625, 0.00781250, -0.00390625, 0.00781250, 0.00390625, 0.00390625, -0.01953125, 0.00390625, -0.00781250, 0.01171875, -0.01953125, 0.00390625, 0.00390625, -0.01171875, 0.01171875, 0.00390625, 0.00000000, 0.00390625, 0.00781250, 0.00000000, -0.00781250, 0.00390625, 0.00000000, 0.00000000, -0.01562500, -0.00390625, 0.00781250, -0.00390625, 0.00390625, 0.00000000, 0.01171875, -0.02343750, -0.01171875, -0.00781250, 0.00390625, -0.01562500, -0.00781250, 0.00000000, 0.00781250, 0.00000000, 0.00000000, 0.00000000, 0.00781250, -0.00390625, -0.00390625, -0.00781250, 0.00781250, -0.00781250, -0.00781250, -0.00781250, 0.00390625, -0.00390625, -0.00390625, -0.00781250, 0.00390625, -0.00390625, -0.01171875, -0.00390625, 0.00000000, 0.00390625, 0.00000000, 0.00000000, 0.00000000, 0.00000000, -0.00781250, 0.00390625, 0.00390625, 0.01171875, 0.00000000, -0.00390625, 0.00390625, -0.01171875, -0.00390625, 0.00000000, -0.00390625, 0.00000000, 0.00000000, 0.00390625, 0.00000000, -0.00781250, 0.00000000, 0.00390625, -0.00781250, -0.00390625, 0.00781250, -0.00781250, 0.00781250, 0.00000000, -0.01171875, 0.01953125, -0.00390625, -0.00390625, -0.00390625, -0.00781250, -0.00781250, -0.00390625, 0.00781250, 0.00000000, -0.01562500, -0.00390625, 0.00390625, -0.00781250, 0.00000000, -0.01171875, 0.00000000, 0.00390625, 0.00390625, 0.00000000, 0.00390625, 0.00390625, -0.00390625, 0.00390625, 0.00390625, 0.00000000, 0.00390625, -0.01953125, 0.00390625, -0.01171875, 0.00390625, -0.00781250, 0.00000000, 0.00000000, 0.00781250, 0.01171875, -0.00390625, 0.00000000, 0.00000000, 0.00390625, 0.00781250, 0.00781250, -0.00781250, 0.00000000, 0.00390625, 0.00781250, -0.01562500, -0.00390625, 0.00000000, 0.00390625, -0.00390625, 0.00000000, 0.00390625, -0.01171875, 0.00390625, 0.00390625, -0.00781250, 0.00390625, 0.00781250, -0.00390625, 0.00000000, 0.00390625, -0.00390625, 0.00000000, -0.00390625, 0.00781250, 0.00000000, 0.00781250, 0.00000000, 0.00000000, -0.01562500, 0.00390625, 0.00390625, -0.00781250, 0.00390625, -0.01171875, -0.00781250, 0.00781250, 0.01171875, 0.01171875, -0.00390625, 0.00000000, -0.00781250, -0.00390625, -0.00390625, 0.00781250, 0.01171875, -0.01171875, -0.00781250, 0.00781250, 0.00390625, 0.00000000, 0.00781250, -0.01171875, -0.00390625, -0.00390625, -0.00390625, 0.00000000, 0.00390625, 0.00000000, -0.00390625, 0.00781250, -0.00390625, 0.01171875, -0.00390625, 0.00000000, 0.00390625, 0.01171875, 0.00000000, 0.00390625, -0.00390625, -0.00781250, 0.00390625, 0.00781250, 0.00000000, -0.00390625, 0.00000000, 0.00000000, 0.00000000, 0.00390625, 0.00390625, -0.00390625, -0.00390625, 0.00390625, 0.00390625, 0.00000000, -0.00390625, -0.00781250, -0.01562500, 0.00781250, 0.00000000, -0.00781250, 0.00000000, -0.00390625, -0.01171875, -0.01171875, 0.00781250, 0.00000000, 0.00000000, -0.01171875, 0.00390625, -0.00781250, 0.00390625, -0.00781250, 0.00000000, -0.00781250, 0.00390625, -0.00390625, 0.00000000, 0.00781250, -0.00781250, 0.00000000, 0.00390625, -0.00390625, 0.00781250, -0.00781250, 0.00000000, -0.01171875, -0.00390625, 0.00000000, 0.00000000, 0.00390625, 0.00000000, -0.00781250, -0.00781250, 0.00390625, 0.00000000, -0.00390625, -0.01171875, -0.00390625, 0.00781250, -0.01171875, 0.00000000, -0.01562500, -0.00781250, -0.00781250, -0.00390625, 0.00000000, -0.01171875, -0.00781250, -0.00390625, -0.01171875, 0.00000000, -0.00781250, -0.00781250, -0.01171875, 0.00000000, -0.00781250, -0.00390625, -0.00781250, 0.00781250, -0.00390625, -0.01562500, -0.00781250, -0.00390625, 0.00781250, 0.00781250, -0.00390625, -0.01562500, -0.00781250, 0.00000000, -0.01171875, 0.00000000, -0.01171875, 0.00000000, -0.00390625, 0.00781250, 0.00000000, 0.00000000, -0.01171875, 0.00781250, -0.00390625, -0.00781250, -0.01171875, -0.00390625, -0.01562500, -0.00390625, 0.00000000, -0.00390625, 0.00781250, -0.00390625, -0.01562500, -0.00390625, -0.00390625, -0.01171875, -0.00390625, 0.00000000, 0.00781250, -0.00390625, -0.00390625, 0.00390625, -0.00390625, 0.00000000, 0.00390625, 0.00390625, 0.00781250, 0.00000000, -0.00390625, -0.00390625, -0.00781250, 0.00000000, -0.00781250, 0.00390625, 0.00000000, 0.01171875, 0.01171875, -0.01953125, -0.00390625, 0.00390625, 0.00390625, 0.01171875, 0.00781250, 0.00390625, 0.00000000, 0.00781250, 0.00000000, -0.01562500, 0.00000000, 0.00000000, -0.01171875, -0.00390625, 0.00000000, -0.01562500, -0.00781250, 0.00000000, -0.00781250, -0.00781250, -0.00781250, 0.01171875, -0.00781250, 0.00390625, -0.01171875, -0.00390625, -0.00781250, 0.01171875, -0.01171875, -0.00781250, 0.00000000, 0.00000000, -0.00781250, -0.00390625, -0.00781250, -0.00781250, -0.01171875, -0.00390625, -0.01171875, 0.00390625, -0.00781250, -0.00390625, -0.00390625, 0.00000000, 0.00000000, -0.01171875, -0.00390625, 0.01171875, -0.01171875, 0.00390625, 0.00390625, 0.00390625, 0.01953125, 0.00781250, 0.00781250, -0.00781250, -0.00781250, 0.00000000, 0.01171875, -0.00781250, -0.00781250, 0.00000000, -0.01562500, 0.01562500, 0.00781250, -0.00781250, 0.00390625, 0.00000000, 0.00781250, 0.00000000, 0.00390625, 0.00781250, 0.00390625, -0.01171875, 0.00000000, 0.00781250, 0.00000000, 0.01171875, 0.00781250, -0.01562500, -0.00781250, -0.00390625, -0.01171875, 0.00781250, -0.01562500, -0.00390625, 0.01171875, 0.01171875, 0.00390625, 0.01171875, 0.00781250, 0.00000000, -0.01562500, 0.00000000, 0.00781250, 0.01171875, -0.01171875, -0.01171875, 0.00390625, 0.00000000, 0.00390625, 0.00000000, -0.00781250, 0.00781250, -0.00390625, -0.02734375, 0.01171875, -0.01953125, 0.00781250, 0.01562500, 0.00000000, -0.00390625, -0.01171875, -0.01171875, 0.01562500, 0.00000000, 0.00781250, 0.00390625, 0.00390625, 0.00390625, -0.00781250, 0.00390625, 0.00390625, -0.01171875, -0.00390625, -0.00781250, -0.00390625, 0.00390625, 0.00000000, -0.00390625, -0.00781250, -0.00781250, -0.00781250, -0.00390625, 0.00390625, -0.00390625, 0.00000000, 0.00390625, -0.01171875, -0.00390625, 0.00390625, -0.00390625, 0.00000000, 0.00390625, 0.00000000, 0.00390625, 0.00000000, -0.00390625, -0.00390625, -0.01171875, 0.00000000, -0.00781250, 0.00390625, 0.00000000, 0.00390625, -0.01171875, 0.00390625, 0.00390625, -0.00390625, 0.00000000, -0.00390625, -0.00390625, 0.00000000, 0.00390625, 0.00000000, -0.00781250, 0.00390625, 0.00000000, -0.00390625, 0.00390625, 0.00000000, 0.00000000, -0.00781250, -0.00390625, -0.00390625, 0.00000000, 0.00390625, 0.00000000, -0.01171875, 0.00781250, -0.00390625, -0.00390625, -0.00390625, 0.00000000, 0.00000000, -0.00390625, -0.00781250, -0.00390625, 0.00390625, -0.00390625, 0.00000000, 0.00000000, -0.00390625, 0.00000000, -0.00390625, -0.00781250, 0.00000000, 0.00000000, 0.00000000, -0.00390625, -0.00390625, 0.00390625, 0.00390625, -0.00781250, 0.00000000, 0.00000000, 0.00000000, 0.00000000, 0.00390625, -0.00390625, 0.00390625, 0.00000000, 0.00390625, -0.00390625, -0.00390625, -0.00390625, -0.00390625, -0.01562500, 0.00000000, 0.00390625, -0.00390625, -0.00390625, -0.00390625, -0.00390625, 0.00390625, 0.00390625, -0.00390625, 0.00781250, -0.00390625, -0.00781250, 0.00000000, 0.00000000, 0.00000000, 0.00000000, -0.00390625, 0.00000000, -0.00390625, 0.00000000, 0.00000000, 0.00390625, -0.00390625, 0.00000000, -0.00390625, 0.00000000, 0.00000000, 0.00000000, -0.00781250, 0.00000000, 0.00390625, -0.00781250, -0.00390625, -0.00390625, 0.00000000, -0.00781250, -0.00390625, 0.00000000, 0.00000000, 0.00390625, -0.01171875, -0.00390625, -0.00781250, -0.01171875, 0.00390625, -0.00781250, 0.00000000, 0.00000000, -0.00390625, 0.00781250, 0.00390625, 0.00781250, 0.00390625, 0.00390625, 0.00000000, 0.00390625, 0.00781250, 0.00000000, -0.00390625, -0.00781250, 0.00390625, -0.00390625, 0.00000000, 0.00390625, 0.00000000, -0.00781250, 0.00781250, 0.00390625, -0.00781250, -0.00390625, -0.00390625, -0.00781250, 0.01562500, -0.00390625, -0.00390625, -0.00781250, 0.00000000, 0.00390625, 0.00390625, 0.00000000, 0.00781250, 0.00000000, -0.00781250, 0.00390625, 0.00000000, 0.00000000, 0.00000000, 0.00781250, -0.00390625, 0.00000000, 0.00000000, -0.00390625, -0.00390625, 0.00390625, 0.01171875, 0.00000000, -0.00781250, 0.00390625, 0.00000000, -0.00390625, 0.00000000, -0.00390625, -0.00390625, 0.00390625, -0.00390625, -0.01171875, 0.00390625, 0.00390625, -0.00390625, -0.00781250, 0.00390625, 0.00781250, 0.00000000, -0.00390625, -0.00390625, 0.00000000, 0.00390625, 0.00000000, 0.00000000, -0.00390625, 0.00390625, -0.00390625, 0.00390625, -0.00781250, -0.01171875, -0.00390625, 0.00390625, -0.00390625, 0.00000000, 0.00781250, 0.00781250, 0.00000000, -0.00390625, 0.00000000, 0.00390625, 0.00000000, 0.00000000, 0.00390625, -0.00390625, 0.00000000, 0.00390625, 0.00390625, -0.00390625, 0.00390625, 0.00390625, 0.00390625, -0.00390625, 0.00390625, -0.00390625, 0.00000000, -0.00390625, -0.00390625, 0.00390625, -0.00390625, 0.00000000, -0.00781250, -0.00390625, 0.00000000, 0.00781250, -0.00390625, 0.00781250, -0.00390625, 0.00000000, -0.01171875, -0.00390625, 0.00000000, 0.00781250, 0.01171875, -0.01171875, -0.00390625, -0.00390625, -0.00781250, 0.00390625, -0.00781250, 0.00000000, 0.00390625, 0.00000000, 0.00781250, 0.00781250, -0.00390625, 0.01562500, 0.00000000, 0.00000000, 0.00000000, 0.00390625, -0.00390625, -0.00390625, -0.01562500, 0.00000000, -0.00781250, 0.00390625, -0.00390625, 0.00000000, -0.00390625, 0.00000000, 0.00781250, -0.00781250, -0.00390625, -0.00390625, 0.00390625, 0.00781250, 0.00000000, 0.00000000, -0.00390625, 0.00000000, 0.00000000, 0.00000000, 0.00781250, 0.01171875, -0.00390625, -0.01171875, 0.00390625, 0.00781250, -0.00390625, -0.00390625, 0.01171875, -0.00781250, -0.00390625, -0.00390625, 0.00000000, 0.00000000, 0.00390625, 0.00781250, -0.00390625, -0.00390625, 0.00000000, 0.00781250, -0.00781250, 0.00000000, -0.00390625, -0.00781250, 0.00390625, -0.00390625, -0.00781250, 0.00781250, -0.00390625, -0.00781250, -0.00390625, 0.00000000, 0.00000000, -0.00390625, 0.00000000, -0.00390625, -0.00390625, 0.00390625, 0.00390625, 0.00000000, -0.01171875, 0.00000000, -0.00781250, 0.00781250, 0.00390625, -0.00390625, -0.00781250, 0.00000000, -0.00781250, 0.00390625, 0.00000000, 0.00390625, 0.00781250, -0.00781250, -0.00781250, 0.00000000, 0.00000000, 0.00781250, -0.00390625, -0.00390625, -0.00781250, -0.00390625, 0.00781250, 0.00390625, 0.00781250, -0.00781250, 0.00000000, -0.00390625, -0.00390625, -0.00781250, 0.00390625, -0.00781250, 0.00781250, 0.00390625, -0.00781250, 0.00781250, -0.00781250, 0.00390625, 0.00390625, 0.00781250, -0.00781250, 0.00000000, -0.00390625, 0.00781250, -0.00781250, 0.00000000, -0.00390625, 0.00000000, 0.00000000, -0.00390625, -0.00390625, 0.00000000, -0.00390625, -0.00390625, -0.00781250, -0.00781250, 0.00000000, -0.00390625, -0.00390625, 0.00000000, 0.00000000, 0.00000000, 0.00390625, 0.00000000, -0.00390625, -0.00390625, 0.00390625, 0.00000000, -0.00390625, -0.00390625, -0.00390625, 0.00000000, -0.00390625, 0.00000000, -0.00390625, 0.00390625, -0.00390625, -0.00390625, 0.00000000, 0.00000000, 0.00390625, 0.00000000, 0.00000000, 0.00390625, 0.00000000, 0.00390625, 0.00781250, -0.00390625, 0.00000000, -0.00390625, -0.01171875, 0.00000000, -0.00390625, 0.00000000, 0.00000000, 0.00000000, 0.00000000, 0.00000000, 0.00390625, -0.00781250, 0.00000000, -0.00390625, 0.00000000, -0.00390625, -0.00390625, -0.00390625, 0.00000000, -0.00390625, -0.00390625, 0.00390625, 0.00390625, -0.00390625, 0.00000000, 0.00000000, -0.00390625, -0.00390625, 0.00781250, 0.00000000, -0.00390625, -0.00781250, -0.00390625, 0.00000000, -0.00390625, -0.00390625, 0.00390625, 0.00390625, 0.00000000, 0.00781250, -0.00390625, 0.00390625, 0.00390625, 0.00390625, 0.00390625, -0.00390625, -0.00781250, 0.00000000, 0.00000000, 0.00000000, 0.00000000, -0.00390625, 0.00000000, -0.00390625, 0.00000000, 0.00390625, 0.00000000, -0.00390625, 0.00000000, 0.00000000, 0.00390625, 0.00390625, -0.00390625, 0.00000000, 0.00390625, -0.00390625, 0.00000000, 0.00390625, -0.00390625, -0.00390625, 0.00000000, 0.00000000, 0.00000000, -0.00390625, 0.00000000, -0.00390625, 0.00390625, -0.00390625, 0.00000000, 0.00000000, -0.00390625, 0.00000000, -0.00781250, 0.00000000, 0.00000000, 0.00781250, 0.00000000, 0.00000000, 0.00390625, 0.00000000, -0.00390625, 0.00390625, 0.00000000, 0.00390625, -0.00390625, -0.00781250, 0.00000000, -0.00390625, 0.00000000, -0.00390625, 0.00390625, -0.00390625, 0.00390625, 0.00390625, 0.00000000, 0.00390625, 0.00781250, -0.00390625, 0.00000000, 0.00781250, 0.00390625, 0.00000000, -0.00390625, 0.00390625, 0.00000000, 0.00390625, 0.00390625, 0.00000000, 0.00000000, 0.00390625, -0.00390625, -0.00390625, 0.00000000, 0.00000000, -0.00781250, 0.00000000, 0.00000000, -0.00390625, 0.00390625, -0.00390625, -0.00781250, -0.00390625, 0.00390625, 0.00390625, 0.00390625, -0.00390625, 0.00000000, -0.00390625, 0.00781250, -0.00390625, 0.00390625, 0.00390625, 0.00781250, 0.00000000, -0.00390625, -0.00390625, 0.00390625, 0.00781250, -0.00390625, 0.00390625, 0.00000000, -0.00781250, 0.00390625, -0.00390625, -0.00781250, 0.00390625, 0.00390625, 0.00000000, 0.00000000, -0.00390625, 0.00781250, 0.00000000, -0.00390625, 0.00000000, 0.00000000, 0.00390625, -0.00390625, 0.00390625, 0.00000000, -0.00390625, 0.00390625, 0.00390625, 0.00390625, -0.00390625, -0.00390625, 0.00000000, 0.00000000, 0.00390625, 0.00781250, 0.00781250, 0.00000000, 0.00000000, 0.00000000, 0.00390625, 0.00000000, -0.00390625, 0.00000000, 0.00390625, -0.00390625, 0.01171875, -0.00781250, 0.00390625, 0.00781250, -0.00390625, 0.00000000, 0.00000000, -0.00390625, 0.00000000, 0.01171875, -0.00781250, 0.00390625, 0.00000000, 0.00000000, 0.00000000, 0.00390625, 0.00000000, 0.00390625, 0.00390625, -0.00390625, 0.00000000, -0.00390625, 0.00000000, -0.00390625, 0.00000000, 0.00000000, 0.00390625, 0.00390625, 0.00000000, -0.01171875, -0.01171875, -0.00390625, 0.00781250, -0.00781250, 0.00000000, 0.00000000, 0.00000000, 0.00000000, 0.00390625, 0.00000000, 0.00390625, 0.00390625, 0.00390625, 0.00390625, 0.00000000, 0.00390625, -0.00390625, -0.00781250, 0.00000000, -0.01171875, 0.00781250, 0.00390625, 0.00390625, 0.00000000, 0.00781250, 0.00781250, -0.00390625, -0.00390625, -0.00390625, 0.00000000, -0.00390625, 0.00781250, 0.00000000, -0.00781250, 0.00000000, -0.00390625, 0.00000000, 0.00000000, 0.00781250, -0.00390625, -0.00390625, 0.00000000, 0.00390625, 0.00000000, 0.00000000, -0.00390625, -0.00781250, 0.00390625, -0.00781250, 0.00000000, 0.00390625, 0.00390625, 0.00390625, -0.00390625, -0.01171875, 0.00390625, 0.00390625, -0.00390625, 0.00390625, 0.00000000, -0.00781250, 0.00390625, -0.00390625, -0.00781250, 0.00000000, 0.00000000, -0.00781250, -0.00781250, 0.00000000, 0.00390625, 0.00000000, 0.00000000, 0.00000000, -0.00390625, 0.00390625, 0.00000000, 0.00000000, -0.00390625, 0.00390625, -0.00390625, 0.00390625, -0.00390625, -0.00390625, -0.00390625, -0.00390625, -0.00781250, -0.00390625, 0.00781250, 0.00390625, 0.00781250, -0.00390625, 0.00000000, 0.00390625, 0.00390625, 0.00000000, -0.00390625, 0.00390625, -0.00390625, 0.00781250, -0.00390625, -0.00390625, 0.00000000, -0.00781250, 0.00390625, -0.00390625, -0.00781250, -0.00781250, 0.00390625, -0.01171875, 0.00390625, -0.00390625, -0.00390625, 0.00000000, -0.00390625, 0.00390625, 0.00390625, 0.00000000, -0.00781250, -0.00390625, -0.00781250, -0.00781250, -0.00781250, -0.00390625, -0.00390625, -0.00390625, 0.00000000, -0.00781250, -0.00390625, -0.00390625, -0.00390625, -0.00390625, 0.00000000, -0.00390625, 0.00000000, -0.00781250, 0.00000000, -0.00390625, 0.00000000, 0.00390625, -0.00781250, 0.00000000, -0.00390625, -0.00390625, -0.00390625, -0.00390625, -0.00390625, -0.00390625, -0.00781250, 0.00000000, -0.00390625, 0.00000000, -0.00390625, -0.00390625, 0.00000000, -0.00781250, 0.00000000, -0.00390625, -0.00390625, -0.00390625, -0.00390625, -0.00390625, -0.00390625, 0.00390625, 0.00000000, -0.00781250, 0.00000000, -0.00390625, -0.00781250, -0.00390625, -0.00390625, -0.00781250, -0.00781250, -0.00390625, -0.00390625, -0.00390625, -0.00781250, -0.00781250, -0.00781250, -0.00390625, 0.00000000, -0.00390625, -0.00390625, -0.00781250, 0.00390625, 0.00000000, -0.00390625, 0.00000000, -0.00390625, 0.00000000, -0.00390625, -0.00781250, -0.00390625, 0.00000000, -0.00390625, -0.00781250, -0.00781250, -0.00390625, -0.00390625, -0.00390625, -0.00390625, 0.00000000, 0.00000000, 0.00390625, 0.00000000, 0.00000000, 0.00000000, -0.00390625, 0.00000000, 0.00390625, -0.00390625, 0.00000000, -0.00390625, -0.00781250, -0.00781250, -0.00390625, -0.00390625, -0.00781250, -0.00390625, -0.00390625, -0.00390625, 0.00000000, 0.00390625, 0.00000000, 0.00000000, -0.00781250, 0.00000000, 0.00000000, -0.00390625, -0.00390625, -0.00390625, -0.01171875, 0.00000000, -0.00390625, -0.00781250, 0.00000000, 0.00390625, 0.00000000, 0.00000000, -0.00390625, 0.00000000, -0.00390625, -0.00781250, -0.00390625, 0.00000000, 0.00390625, -0.00781250, 0.00000000, -0.00781250, 0.00000000, -0.00390625, -0.00390625, 0.00000000, 0.00390625, 0.00390625, -0.00390625, -0.00781250, 0.00000000, -0.00781250, 0.00000000, -0.00390625, -0.01171875, 0.00000000, -0.00390625, 0.00000000, 0.00390625, 0.00390625, 0.00390625, 0.00390625, 0.00000000, 0.00390625, 0.00000000, -0.00390625, -0.00390625, -0.00781250, 0.00781250, 0.00000000, 0.00000000, -0.00390625, 0.00000000, 0.00000000, 0.00390625, 0.00781250, -0.00781250, -0.00390625, 0.00000000, 0.00000000, -0.00390625, 0.00390625, -0.00390625, -0.00390625, 0.00000000, -0.00390625, 0.00390625, 0.00390625, -0.00390625, -0.00781250, 0.00390625, 0.00000000, -0.00390625, 0.00000000, 0.00390625, -0.00390625, -0.00390625, 0.00000000, -0.00781250, 0.00000000, 0.00000000, 0.00390625, 0.00781250, 0.00000000, -0.00781250, 0.00390625, 0.00000000, 0.00000000, 0.00390625, -0.00390625, -0.00781250, 0.00390625, -0.00390625, -0.00390625, 0.00000000, -0.00390625, -0.00781250, -0.00390625, -0.00390625, 0.00390625, 0.00390625, 0.00000000, -0.00390625, -0.00390625, 0.00000000, 0.00000000, 0.00390625, 0.00000000, -0.00390625, 0.00000000, 0.00390625, 0.00000000, -0.00781250, -0.00390625, -0.00781250, 0.00000000, -0.00781250, 0.00781250, 0.00000000, -0.00390625, -0.00781250, -0.00390625, 0.00390625, 0.00000000, 0.00000000, 0.00000000, 0.00000000, -0.00781250, 0.00000000, -0.00781250, 0.00390625, 0.00390625, -0.00390625, -0.00390625, -0.01171875, -0.00781250, -0.00390625, 0.00000000, -0.00390625, 0.00000000, -0.00781250, 0.00000000, -0.00390625, -0.00781250, -0.00390625, 0.00000000, -0.00390625, -0.00781250, 0.00000000, -0.00390625, 0.00000000, 0.00000000, 0.00000000, 0.00781250, 0.00390625, 0.00390625, 0.00000000, -0.00390625, -0.00390625, -0.00390625, 0.00390625, -0.00390625, 0.00000000, 0.00781250, -0.00781250, 0.00390625, 0.00000000, 0.00000000, 0.00390625, 0.00390625, 0.00390625, 0.00390625, 0.00390625, 0.00390625, 0.00000000, 0.00000000, 0.00390625, -0.00390625, 0.00390625, 0.00390625, 0.00000000, 0.00390625, 0.00000000, 0.00000000, 0.00000000, 0.00000000, -0.00390625, 0.00390625, 0.00390625, 0.00781250, 0.00000000, -0.00781250, 0.00390625, 0.00000000, 0.00390625, 0.00390625, 0.00390625, -0.00390625, -0.00390625, 0.00000000, 0.00390625, 0.00000000, 0.00390625, 0.00390625, -0.00390625, 0.00781250, -0.00390625, -0.00390625, -0.00390625, 0.00390625, -0.00781250, 0.00000000, -0.00390625, 0.00390625, 0.00000000, 0.00000000, 0.00000000, 0.00000000, -0.00781250, 0.00000000, -0.00390625, -0.00390625, 0.00000000, 0.00000000, -0.00390625, -0.00390625, 0.00390625, -0.00390625, 0.00000000, -0.00390625, -0.00390625, 0.00000000, 0.00000000, -0.00390625, 0.00000000, 0.00000000, -0.00390625, -0.00390625, 0.00781250, 0.00390625, -0.00781250, -0.00390625, -0.00781250, 0.00000000, -0.00390625, 0.00390625, 0.00390625, -0.00390625, -0.00390625, 0.00000000, 0.00781250, 0.00390625, 0.00000000, 0.00000000, 0.00000000, 0.00000000, 0.00000000, -0.00390625, -0.00390625, 0.00390625, 0.00000000, 0.00390625, 0.00000000, 0.00390625, -0.00390625, 0.00390625, -0.00390625, 0.00390625, 0.00000000, 0.00000000, -0.00390625, 0.00000000, -0.00390625, 0.00781250, 0.00390625, -0.01171875, 0.00000000, 0.00390625, -0.00781250, -0.00390625, -0.01171875, 0.00390625, -0.00781250, 0.00000000, -0.00781250, -0.00781250, 0.00781250, -0.01562500, 0.00390625, 0.01171875, -0.00781250, -0.02343750, 0.01562500, -0.00781250, -0.00390625, -0.00390625, 0.00390625, -0.01171875, 0.01953125, 0.00390625, -0.02734375, 0.00000000, -0.02734375, 0.00000000, -0.00781250, 0.00390625, 0.00000000, -0.01171875, -0.00390625, -0.00781250, -0.00781250, 0.00781250, 0.00781250, 0.01953125, -0.01562500, 0.01953125, 0.00000000, -0.00781250, 0.00390625, -0.00390625, -0.00781250, -0.01171875, -0.01953125, 0.00000000, -0.01953125, 0.00390625, 0.00390625, 0.00000000, 0.00390625, -0.01562500, 0.00000000, -0.01953125, -0.01562500, -0.00781250, 0.01171875, -0.01171875, -0.01171875, 0.00000000, -0.01171875, 0.00390625, 0.00000000, 0.00390625, 0.00000000, -0.00781250, 0.00000000, 0.00390625, 0.00000000, -0.01953125, -0.00781250, -0.00390625, 0.00000000, 0.00000000, 0.00781250, -0.00781250, -0.00390625, -0.00390625, -0.00390625, 0.00390625, 0.00000000, -0.01562500, 0.00000000, 0.00781250, 0.00781250, 0.00000000, 0.00000000, -0.01953125, -0.01562500, 0.00000000, 0.01171875, -0.00390625, -0.00781250, -0.00781250, -0.01562500, -0.00390625, -0.00781250, 0.00781250, -0.00781250, -0.00390625, -0.00390625, -0.00781250, 0.00781250, -0.03125000, 0.00390625, 0.00390625, -0.00781250, -0.00781250, -0.00781250, 0.00781250, -0.00390625, -0.01562500, -0.01171875, -0.01562500, -0.00390625, -0.01953125, 0.00000000, 0.00390625, -0.01171875, -0.00781250, -0.01171875, -0.00390625, 0.00390625, 0.00390625, -0.00781250, -0.00781250, -0.00390625, -0.00390625, -0.00390625, -0.00390625, -0.00390625, -0.00390625, -0.00390625, -0.00390625, -0.00390625, -0.00781250, 0.00390625, 0.00781250, 0.00390625, 0.01562500, -0.01171875, -0.01562500, 0.00390625, 0.00390625, -0.01953125, 0.00390625, 0.00390625, -0.00781250, 0.02734375, 0.00000000, -0.01953125, -0.00390625, 0.00781250, 0.00000000, -0.00781250, -0.00390625, 0.00000000, -0.01171875, 0.00781250, 0.00000000, -0.00390625, 0.00390625, 0.00000000, 0.02734375, -0.00390625, 0.01562500, -0.00390625, -0.01171875, 0.01171875, -0.01562500, -0.00390625, -0.01562500, -0.00781250, 0.01171875, -0.01171875, -0.02343750, 0.01171875, -0.00781250, -0.00390625, -0.02343750, -0.00781250, -0.01171875, -0.00390625, -0.00390625, -0.00390625, -0.00781250, -0.00781250, 0.00000000, -0.01562500, 0.00000000, 0.00781250, 0.01953125, 0.00390625, 0.00000000, 0.00781250, 0.00000000, 0.00000000, 0.00000000, -0.00390625, 0.00000000, 0.00390625, 0.00390625, 0.00390625, -0.00390625, 0.00390625, 0.00390625, 0.00390625, 0.00390625, -0.00781250, -0.01171875, -0.00781250, 0.00781250, 0.01562500, 0.00390625, -0.00390625, -0.00781250, -0.00390625, 0.01171875, 0.00781250, 0.00000000, 0.00000000, -0.00390625, -0.02734375, 0.00000000, -0.01562500, 0.01562500, -0.00390625, 0.00781250, 0.00781250, 0.00781250, 0.00000000, -0.01562500, 0.00390625, -0.00781250, -0.01171875, 0.00781250, 0.00000000, 0.01171875, 0.00000000, -0.01171875, -0.01171875, -0.01171875, 0.00390625, -0.00781250, -0.01171875, -0.00781250, -0.00781250, -0.00390625, 0.00000000, -0.00781250, 0.00781250, -0.00781250, -0.02343750, 0.00000000, -0.01953125, -0.00781250, 0.00390625, 0.00390625, -0.00390625, -0.01171875, 0.00781250, 0.00000000, -0.00781250, -0.00390625, -0.00781250, -0.00390625, -0.01171875, -0.01562500, -0.00781250, -0.01171875, -0.01171875, -0.01953125, 0.00390625, -0.00781250, 0.00000000, -0.01171875, 0.01562500, -0.00781250, -0.01562500, 0.01171875, -0.00781250, 0.00000000, 0.00000000, -0.00390625, -0.00390625, -0.00781250, -0.00390625, -0.00781250, -0.00390625, -0.00781250, -0.00390625, 0.00390625, -0.00390625, 0.00390625, -0.00781250, -0.01171875, 0.01562500, -0.00781250, 0.00781250, 0.00000000, -0.01171875, -0.00781250, 0.00781250, -0.01953125, -0.00781250, -0.01562500, 0.00390625, 0.00781250, 0.01171875, -0.02343750, 0.00000000, 0.00390625, -0.00390625, 0.00781250, -0.01171875, 0.00000000, -0.01171875, -0.00390625, -0.00781250, 0.03515625, -0.00390625, 0.00000000, 0.00390625, 0.00781250, -0.01953125, -0.01562500, 0.00390625, -0.00390625, -0.01562500, 0.00000000, -0.00781250, -0.01171875, -0.00781250, 0.01562500, 0.01171875, -0.00390625, 0.00000000, 0.00000000, -0.01562500, 0.01171875, 0.03125000, 0.00781250, 0.00390625, -0.01562500, 0.00000000, 0.02343750, -0.00390625, -0.01953125, 0.00000000, -0.00781250, 0.00390625, -0.00781250, -0.00781250, -0.00390625, -0.00781250, 0.00000000, 0.01171875, 0.01562500, -0.00781250, -0.00390625, 0.00390625, -0.00390625, -0.00781250, -0.01562500, -0.00781250, -0.00781250, 0.00390625, 0.00000000, 0.01562500, 0.00781250, -0.00781250, -0.01562500, -0.00390625, -0.00781250, -0.01562500, 0.00390625, -0.01171875, 0.00781250, -0.00781250, 0.00000000, -0.00781250, -0.02734375, -0.01562500, 0.00781250, -0.01562500, 0.00781250, 0.00390625, -0.01171875, -0.01171875, 0.00390625, 0.00000000, -0.00390625, 0.01171875, 0.00390625, -0.00781250, 0.01171875, 0.00390625, -0.02343750, 0.01562500, -0.00390625, -0.01562500, -0.01953125, 0.00781250, -0.01171875, 0.00781250, 0.00000000, -0.02734375, -0.01171875, -0.00390625, 0.01562500, -0.01562500, 0.01171875, 0.00000000, -0.01562500, 0.00390625, 0.00781250, -0.02343750, 0.00781250, 0.00390625, 0.01562500, 0.00390625, 0.02343750, -0.01562500, -0.01171875, -0.01171875, 0.01562500, 0.00000000, -0.00781250, -0.02734375, 0.00390625, -0.01953125, 0.00000000, 0.01562500, -0.01562500, 0.00390625, -0.01562500, -0.01562500, -0.01953125, 0.01171875, -0.01171875, 0.01171875, -0.00781250, -0.00390625, -0.00390625, -0.02343750, 0.01953125, 0.00781250, 0.00390625, 0.00781250, 0.00390625, 0.00390625, 0.02343750, -0.00390625, 0.00000000, -0.00390625, 0.01562500, -0.00390625, 0.00390625, 0.00390625, 0.00390625, 0.01562500, 0.00000000, 0.00000000, 0.00781250, -0.01171875, -0.00390625, -0.00781250, 0.00390625, 0.00781250, 0.00390625, -0.00781250, -0.02734375, -0.01171875, 0.00000000, 0.01953125, 0.01171875, 0.00390625, 0.01171875, -0.00781250, -0.01953125, -0.01171875, 0.02734375, 0.00781250, 0.00781250, -0.01953125, -0.00390625, 0.00781250, -0.02343750, 0.01171875, -0.00390625, 0.00000000, -0.01562500, -0.00781250, -0.00390625, 0.01562500, -0.02343750, -0.00781250, -0.02734375, 0.00781250, -0.01953125, 0.00000000, -0.00781250, 0.00781250, 0.00000000, -0.01171875, -0.01953125, 0.00000000, -0.02734375, -0.01171875, 0.01171875, -0.01562500, -0.00781250, -0.01171875, 0.00000000, 0.00781250, 0.00000000, 0.01171875, 0.00390625, -0.00390625, -0.00390625, 0.00000000, -0.00390625, -0.01562500, -0.00390625, -0.03125000, -0.01562500, 0.01171875, -0.01953125, 0.00000000, 0.00781250, 0.00390625, -0.01171875, 0.00781250, 0.00781250, 0.00390625, -0.01562500, 0.00000000, -0.00390625, 0.00390625, 0.00781250, 0.00000000, -0.01953125, 0.01171875, -0.00781250, 0.00390625, 0.01171875, 0.00000000, 0.01953125, -0.00781250, 0.01953125, 0.01171875, 0.00781250, 0.00781250, -0.01171875, -0.00390625, -0.01953125, -0.01562500, 0.02343750, -0.00781250, -0.03125000, 0.00781250, 0.01171875, 0.00000000, -0.01171875, -0.00781250, -0.01562500, 0.00000000, -0.00781250, -0.01171875, -0.00390625, 0.00390625, 0.01171875, 0.00000000, 0.00390625, -0.00390625, 0.00781250, 0.00781250, -0.00781250, -0.00390625, 0.00781250, 0.00390625, 0.00000000, 0.00390625, 0.00390625, 0.00781250, -0.00390625, -0.00390625, -0.00781250, 0.00781250, 0.01562500, -0.00390625, 0.00000000, -0.00781250, -0.00781250, 0.01562500, 0.01562500, 0.03125000, 0.00000000, 0.00390625, 0.00000000, -0.01171875, 0.00781250, 0.01171875, 0.00390625, 0.01562500, -0.01171875, 0.00390625, 0.00390625, 0.00781250, 0.01562500, 0.00781250, 0.01562500, 0.00000000, 0.00000000, 0.00781250, -0.01953125, 0.00781250, 0.00000000, 0.01171875, -0.00781250, 0.00781250, 0.00000000, -0.00390625, 0.00390625, -0.00781250, 0.00781250, 0.00390625, -0.01562500, -0.00390625, 0.00781250, -0.01562500, 0.01171875, -0.00781250, 0.00000000, 0.00781250, -0.01562500, -0.00390625, -0.00390625, -0.00390625, -0.01171875, -0.00390625, 0.00000000, 0.00000000, 0.00000000, 0.00781250, 0.00390625, -0.00390625, 0.01171875, 0.00000000, 0.00390625, -0.00390625, -0.00390625, -0.02343750, 0.00000000, -0.01562500, 0.00000000, 0.00390625, -0.01562500, 0.01562500, 0.00000000, 0.01562500, -0.00390625, 0.01171875, -0.01171875, 0.00781250, -0.01171875, -0.00390625, -0.01171875, 0.00390625, -0.02734375, 0.00390625, 0.00000000, 0.00000000, 0.00781250, 0.00000000, 0.00000000, 0.00390625, 0.01171875, 0.01953125, 0.00390625, 0.00781250, -0.01171875, 0.01171875, -0.00390625, -0.00390625, 0.00390625, 0.00000000, -0.01953125, -0.01171875, -0.00390625, -0.00781250, -0.01171875, 0.01171875, -0.00781250, -0.01171875, 0.00390625, -0.01562500, 0.00390625, -0.00781250, 0.02343750, 0.01171875, -0.01171875, -0.00390625, 0.01953125, 0.00390625, 0.00000000, 0.00390625, 0.00000000, 0.00000000, 0.01562500, 0.00000000, -0.00781250, -0.01953125, 0.01171875, -0.00781250, -0.01171875, -0.01171875, 0.00781250, 0.00390625, -0.00390625, 0.00000000, -0.00390625, -0.00781250, 0.01171875, 0.02734375, -0.01171875, 0.01562500, -0.01171875, 0.01171875, 0.01171875, -0.00390625, 0.00000000, 0.00000000, 0.00390625, 0.01171875, -0.00390625, 0.00781250, 0.00781250, -0.00390625, 0.00000000, 0.01953125, 0.00781250, -0.01171875, -0.00781250, -0.00781250, -0.00390625, -0.00390625, -0.01953125, 0.01171875, 0.01171875, 0.00000000, 0.00781250, -0.00390625, 0.00000000, -0.00390625, 0.00390625, 0.00000000, 0.01562500, -0.01171875, -0.01171875, -0.02343750, -0.01171875, 0.00000000, 0.00781250, 0.00390625, -0.01562500, -0.01562500, 0.00390625, -0.01953125, 0.00390625, -0.01171875, 0.00781250, -0.01171875, 0.00000000, -0.00781250, 0.00781250, 0.00390625, 0.00390625, -0.00390625, -0.00390625, -0.01953125, 0.00390625, 0.00781250, -0.01562500, 0.00000000, -0.02343750, 0.00781250, 0.00781250, 0.00781250, 0.00390625, -0.01171875, -0.00781250, 0.01171875, -0.00390625, -0.01562500, -0.00390625, -0.00781250, 0.00000000, 0.01562500, -0.00781250, -0.00781250, 0.00390625, 0.00390625, 0.01953125, 0.00000000, 0.01171875, -0.00781250, -0.01171875, -0.00781250, 0.00390625, 0.00000000, -0.00390625, -0.00390625, 0.00781250, 0.00390625, -0.01953125, 0.00390625, -0.00781250, 0.00390625, -0.01953125, 0.00781250, 0.00781250, 0.00000000, -0.01562500, 0.00000000, -0.00781250, -0.01562500, 0.02734375, -0.00390625, 0.01171875, 0.01171875, 0.00000000, -0.00390625, 0.00000000, 0.00000000, 0.01171875, 0.00781250, 0.00781250, -0.02343750, 0.00781250, 0.00000000, 0.00390625, 0.01171875, 0.00000000, 0.00781250, 0.01171875, -0.01953125, -0.00390625, -0.00390625, -0.00390625, 0.00390625, 0.01171875, 0.00781250, 0.00000000, 0.00000000, -0.00390625, 0.01953125, -0.00781250, 0.01171875, 0.00390625, -0.00781250, 0.00000000, -0.00390625, -0.01171875, 0.00000000, 0.00390625, 0.01171875, 0.00000000, 0.00390625, -0.01171875, -0.00781250, -0.00781250, 0.00781250, 0.00781250, 0.00390625, 0.01562500, 0.00000000, 0.00390625, 0.00390625, -0.00390625, -0.00781250, 0.00781250, 0.01562500, -0.01171875, 0.01171875, 0.00000000, -0.01562500, 0.00781250, 0.00000000, -0.00781250, 0.00000000, -0.00390625, -0.01171875, -0.00781250, -0.00390625, -0.01171875, -0.02343750, -0.00781250, -0.00390625, 0.00390625, 0.00390625, 0.01562500, -0.00781250, 0.00000000, 0.00390625, 0.00000000, 0.00781250, 0.00000000, -0.02734375, -0.00390625, -0.00781250, -0.01953125, -0.00390625, 0.00000000, 0.01171875, 0.01171875, 0.01953125, 0.00781250, 0.00781250, -0.01171875, 0.00781250, -0.00781250, 0.01171875, 0.00781250, 0.02734375, -0.00781250, 0.01562500, -0.01562500, 0.00781250, 0.01562500, 0.00390625, 0.02343750, 0.00390625, 0.00390625, 0.01171875, 0.01171875, 0.01562500, 0.00390625, 0.02343750, -0.00781250, 0.01171875, 0.01953125, -0.01562500, -0.01562500, -0.00781250, 0.01171875, -0.00390625, -0.00390625, -0.00390625, -0.00390625, 0.00390625, 0.00000000, -0.00781250, 0.00000000, 0.00000000, 0.04687500, 0.01562500, 0.00000000, -0.00781250, 0.02343750, 0.00390625, 0.00000000, 0.00390625, -0.00390625, 0.00781250, 0.00390625, -0.00781250, -0.00390625, -0.00390625, 0.01171875, -0.00390625, 0.00000000, 0.00000000, 0.01953125, 0.00390625, -0.00781250, 0.00390625, -0.00390625, -0.01562500, 0.01953125, 0.03515625, -0.00390625, 0.00390625, -0.00390625, 0.00000000, -0.00390625, -0.00390625, -0.01562500, -0.01171875, -0.00390625, -0.01171875, -0.00781250, 0.00781250, -0.00390625, 0.00781250, 0.00781250, 0.01953125, 0.01171875, -0.01171875, 0.00000000, -0.00390625, 0.00000000, 0.01171875, 0.00781250, 0.00000000, 0.03125000, 0.00390625, 0.00781250, -0.01171875, 0.00781250, -0.00390625, -0.00781250, 0.00000000, 0.01562500, -0.03906250, 0.00000000, -0.00781250, 0.00390625, -0.02343750, -0.00781250, -0.00390625, -0.00781250, -0.00390625, -0.02734375, -0.03515625, -0.01171875, -0.01562500, 0.00781250, -0.00390625, 0.00000000, 0.00000000, 0.00781250, -0.00390625, 0.00781250, 0.00000000, -0.01562500, -0.00390625, 0.00390625, -0.01171875, -0.00390625, 0.01171875, -0.01562500, 0.00781250, 0.02343750, 0.00781250, -0.00781250, -0.00390625, -0.00390625, 0.01171875, -0.01953125, -0.01562500, -0.00781250, 0.01171875, 0.00000000, 0.01171875, -0.01171875, -0.00390625, -0.00781250, 0.00390625, 0.01562500, 0.00000000, -0.00390625, -0.01171875, 0.00781250, 0.00781250, 0.00000000, 0.01562500, -0.00781250, 0.02734375, 0.00781250, -0.01171875, -0.03515625, 0.00000000, -0.00781250, -0.01562500, -0.00781250, 0.03125000, 0.00000000, -0.01562500, 0.00390625, -0.00781250, -0.00781250, -0.02343750, 0.03906250, 0.00000000, 0.00781250, -0.02734375, 0.03515625, -0.01562500, -0.01953125, 0.01171875, -0.02734375, 0.00000000, -0.01171875, 0.00390625, -0.01171875, -0.01953125, 0.00000000, -0.00781250, -0.00390625, -0.00390625, 0.00390625, 0.01171875, -0.00390625, 0.00390625, -0.00390625, -0.01953125, 0.00781250, 0.03906250, -0.01562500, -0.00390625, -0.00390625, 0.01953125, -0.01562500, -0.02343750, -0.02343750, -0.00390625, -0.01171875, 0.00390625, 0.00000000, 0.00781250, -0.03515625, 0.00390625, -0.00390625, 0.02343750, 0.01171875, -0.01953125, 0.00781250, -0.02343750, 0.00390625, 0.00390625, 0.00390625, -0.00390625, 0.00781250, -0.01171875, -0.00781250, 0.00781250, -0.01171875, 0.00000000, -0.00390625, 0.01562500, 0.00390625, -0.00390625, -0.00781250, -0.01562500, -0.00781250, -0.01953125, -0.00390625, 0.00000000, -0.01171875, 0.00781250, -0.01171875, -0.00390625, -0.00781250, -0.00781250, 0.00000000, 0.00000000, 0.00000000, -0.01171875, 0.00390625, -0.00781250, -0.00781250, 0.00000000, -0.00781250, 0.00000000, 0.00390625, -0.01171875, 0.00000000, 0.00390625, 0.00000000, 0.00000000, 0.00000000, -0.00390625, -0.00390625, 0.00000000, 0.00390625, -0.00781250, -0.00390625, 0.00000000, -0.00390625, 0.00000000, 0.00000000, 0.00000000, 0.00000000, 0.00000000, 0.00390625, -0.00390625, 0.00781250, -0.00390625, -0.00390625, -0.00390625, -0.00390625, 0.00000000, -0.00390625, -0.00390625, 0.00390625, -0.00390625, 0.00000000, 0.00390625, 0.00000000, -0.01171875, -0.00390625, 0.00000000, 0.00000000, -0.00390625, 0.00390625, -0.01171875, 0.00390625, -0.00390625, 0.00390625, -0.00390625, 0.00781250, 0.00000000, 0.00000000, -0.00781250, 0.00390625, 0.00000000, -0.00390625, 0.00000000, -0.01171875, -0.00390625, 0.00000000, -0.00781250, -0.00781250, -0.00390625, 0.00390625, -0.00781250, -0.00390625, -0.00390625, -0.00390625, 0.00390625, -0.00781250, 0.00000000, 0.00000000, -0.00390625, -0.00390625, -0.00781250, -0.01171875, 0.00781250, 0.00000000, 0.00390625, -0.00781250, -0.00390625, -0.00390625, -0.00390625, -0.00781250, 0.00390625, 0.00390625, -0.00390625, -0.00390625, 0.00000000, -0.00781250, 0.00390625, 0.00390625, -0.00781250, 0.00000000, -0.01171875, -0.00781250, 0.00000000, 0.00000000, 0.00390625, 0.00000000, 0.00000000, 0.00000000, -0.00390625, -0.00390625, 0.00390625, 0.00000000, -0.00390625, -0.00390625, -0.00390625, 0.00000000, 0.00390625, 0.00000000, -0.01171875, 0.00000000, 0.00000000, -0.00390625, 0.00000000, -0.00390625, -0.00390625, -0.00781250, -0.00781250, 0.00000000, 0.00000000, 0.00390625, -0.00781250, -0.01171875, -0.00390625, -0.00781250, -0.00390625, -0.00390625, 0.00390625, 0.00781250, -0.00390625, 0.00781250, 0.00390625, 0.00781250, 0.00781250, 0.00390625, 0.00000000, -0.00390625, 0.01562500, -0.00390625, 0.00000000, -0.00781250, 0.00390625, -0.01171875, 0.00000000, 0.00000000, 0.00390625, -0.00390625, 0.00781250, 0.00000000, -0.00781250, -0.00390625, -0.00390625, -0.00390625, 0.01171875, -0.00781250, 0.00000000, -0.00781250, 0.00000000, 0.00390625, 0.01171875, 0.00390625, 0.00781250, 0.00000000, -0.00781250, 0.00000000, 0.00000000, 0.00000000, -0.00390625, 0.00390625, -0.01171875, 0.00000000, -0.00390625, -0.00390625, 0.00000000, 0.00390625, 0.01171875, 0.00000000, -0.00781250, 0.00000000, 0.00781250, 0.00000000, 0.00000000, -0.00781250, -0.01171875, 0.00781250, -0.00781250, -0.01562500, 0.00390625, -0.00390625, -0.00390625, -0.00781250, -0.00390625, 0.00390625, -0.00390625, -0.00390625, 0.00390625, -0.00390625, 0.00390625, 0.00000000, 0.00390625, -0.00390625, 0.00390625, 0.00000000, 0.00390625, -0.00390625, -0.00390625, -0.01171875, -0.00781250, -0.00781250, 0.00000000, 0.00781250, 0.00781250, 0.00000000, -0.00390625, -0.00390625, -0.00390625, 0.00781250, 0.00000000, 0.00781250, -0.00781250, -0.00390625, 0.00390625, 0.00781250, 0.00390625, 0.00781250, -0.00390625, 0.00390625, -0.00781250, 0.00000000, -0.00781250, 0.00390625, 0.00000000, 0.00390625, 0.00390625, -0.00390625, 0.00000000, -0.00390625, -0.00390625, 0.00781250, 0.00390625, -0.00781250, 0.00390625, -0.00781250, 0.00000000, -0.01562500, -0.00781250, 0.00390625, 0.00781250, 0.00781250, -0.00781250, -0.01171875, -0.00781250, -0.01171875, 0.00000000, -0.00781250, 0.00390625, 0.00390625, 0.00000000, 0.01171875, 0.00781250, 0.00390625, 0.00390625, 0.00390625, 0.00781250, 0.00390625, 0.00781250, 0.00000000, -0.00390625, -0.01171875, 0.00390625, -0.01171875, 0.00000000, 0.00000000, 0.00390625, 0.00000000, 0.00000000, 0.00390625, -0.01171875, 0.00000000, -0.01171875, 0.00000000, 0.00390625, 0.00390625, -0.00390625, -0.00390625, 0.00390625, 0.00390625, 0.00390625, 0.00390625, 0.01562500, 0.00000000, -0.00781250, 0.00000000, 0.00781250, 0.00000000, 0.00000000, 0.00390625, -0.00781250, 0.00000000, -0.00390625, -0.00390625, 0.00000000, 0.00390625, 0.01562500, -0.01171875, -0.01171875, 0.00000000, 0.00390625, -0.01171875, 0.00000000, -0.00781250, -0.00390625, 0.00390625, -0.00390625, -0.01171875, 0.00390625, -0.00390625, -0.01171875, -0.00781250, 0.00000000, -0.00390625, -0.00390625, 0.00390625, 0.00390625, -0.00390625, 0.00781250, 0.00390625, 0.00390625, -0.00390625, 0.00390625, 0.00000000, 0.00000000, -0.00390625, -0.00390625, -0.00390625, 0.00390625, -0.00781250, 0.00000000, 0.00390625, 0.00390625, 0.00390625, -0.00781250, -0.00781250, 0.00000000, 0.00390625, 0.00390625, 0.00390625, 0.00000000, -0.00781250, 0.00000000, 0.00781250, 0.00390625, 0.00000000, -0.00390625, 0.00000000, -0.00390625, -0.00390625, -0.01171875, 0.00000000, 0.00000000, 0.00390625, 0.00390625, -0.00390625, 0.00000000, -0.00781250, 0.00781250, 0.00390625, 0.00000000, 0.00000000, 0.00000000, -0.00781250, -0.00390625, -0.00781250, 0.00000000, -0.00390625, 0.00390625, -0.00390625, 0.00000000, 0.00390625, 0.00000000, -0.00390625, 0.00390625, 0.00000000, -0.00390625, 0.00390625, -0.00390625, -0.00390625, 0.00000000, 0.00390625, 0.00000000, -0.00390625, 0.00000000, -0.00390625, 0.00000000, 0.00000000, -0.00390625, -0.00390625, 0.00000000, -0.00781250, -0.00390625, 0.00000000, -0.00390625, -0.00390625, 0.00000000, 0.00000000, 0.00000000, 0.00000000, -0.00390625, -0.00390625, -0.00390625, 0.00000000, 0.00000000, -0.00390625, -0.00390625, 0.00000000, 0.00000000, 0.00000000, -0.00781250, -0.00390625, -0.00390625, -0.00390625, 0.00000000, 0.00000000, 0.00000000, -0.00390625, -0.00781250, -0.00390625, -0.00390625, 0.00390625, 0.00000000, -0.00390625, 0.00000000, 0.00390625, -0.00781250, 0.00390625, -0.00390625, 0.00000000, 0.00000000, 0.00000000, -0.00390625, 0.00000000, 0.00000000, -0.00781250, -0.00390625, 0.00390625, -0.00390625, -0.00781250, -0.00390625, 0.00000000, 0.00781250, -0.00781250, -0.00781250, 0.00000000, -0.00390625, 0.00390625, -0.00390625, -0.00390625, 0.00000000, 0.00000000, 0.00000000, 0.00781250, 0.00000000, -0.00781250, 0.00000000, 0.00000000, 0.00781250, -0.00390625, 0.00000000, 0.00390625, -0.00390625, 0.00000000, 0.00000000, 0.00000000, -0.00390625, -0.00390625, 0.00390625, 0.00000000, 0.00390625, -0.00781250, -0.00390625, 0.00000000, 0.00390625, 0.00000000, 0.00000000, -0.00390625, 0.00000000, 0.00000000, -0.00390625, -0.00390625, 0.00000000, -0.00390625, 0.00390625, 0.00000000, -0.00390625, -0.00390625, 0.00390625, 0.00000000, 0.00390625, -0.00781250, 0.00000000, 0.00000000, 0.00000000, 0.00000000, 0.00000000, 0.00000000, 0.00000000, 0.00000000, 0.00000000, -0.00781250, 0.00390625, -0.00390625, 0.00000000, 0.00390625, 0.00390625, -0.00390625, 0.00390625, 0.00390625, 0.00000000, -0.00390625, 0.00000000, 0.00390625, 0.00390625, 0.00000000, -0.00390625, -0.00781250, 0.00781250, -0.00781250, 0.00390625, 0.00000000, 0.00000000, 0.00781250, 0.00390625, 0.00390625, -0.00390625, -0.00390625, 0.00000000, 0.00000000, 0.00390625, 0.00390625, 0.00000000, -0.00781250, 0.00000000, -0.00390625, 0.00390625, -0.00390625, -0.00390625, -0.00390625, -0.00390625, 0.00000000, 0.00000000, 0.00390625, -0.00390625, 0.00000000, 0.00000000, 0.00000000, -0.00781250, 0.00390625, -0.00781250, 0.00000000, -0.00390625, 0.00390625, 0.00000000, 0.00390625, 0.00781250, 0.00390625, -0.00390625, -0.00390625, -0.00781250, 0.00000000, 0.00000000, 0.00000000, 0.00000000, 0.00390625, -0.00390625, -0.01171875, 0.00000000, 0.00000000, 0.00000000, 0.00000000, 0.00000000, 0.00000000, 0.00781250, -0.00390625, 0.00000000, 0.00000000, 0.00000000, -0.00390625, 0.00390625, 0.00000000, -0.00390625, -0.00390625, -0.00390625, 0.00390625, 0.00390625, 0.01171875, 0.00781250, 0.00390625, 0.00000000, 0.00390625, 0.00390625, 0.00000000, -0.00390625, 0.00000000, 0.00000000, 0.00000000, 0.01171875, -0.00390625, 0.00000000, 0.00000000, 0.00000000, 0.00000000, -0.00390625, -0.00781250, -0.00390625, -0.00390625, 0.00000000, 0.00000000, 0.00390625, 0.00000000, 0.00000000, 0.00390625, 0.00390625, 0.00390625, 0.00390625, -0.00390625, 0.00781250, -0.01171875, -0.00390625, -0.00781250, 0.00000000, 0.00390625, 0.00000000, 0.00781250, 0.00000000, -0.01171875, -0.01171875, -0.00781250, 0.00390625, -0.00390625, 0.00390625, 0.00390625, 0.00000000, 0.00000000, 0.00000000, 0.00000000, 0.00781250, 0.00390625, 0.00390625, 0.00390625, 0.00390625, 0.00000000, 0.00000000, -0.00390625, 0.00000000, -0.00390625, 0.00000000, 0.00390625, 0.00390625, 0.00390625, 0.00390625, 0.00000000, -0.00781250, -0.00390625, -0.00390625, 0.00000000, 0.00000000, 0.00390625, 0.00000000, -0.01171875, 0.00000000, 0.00000000, -0.00390625, 0.00390625, 0.00781250, -0.00390625, 0.00000000, 0.00000000, 0.00390625, 0.00000000, 0.00000000, 0.00781250, -0.00781250, 0.00781250, 0.00000000, 0.00000000, -0.00781250, 0.00390625, 0.00390625, 0.00000000, -0.00390625, 0.00000000, 0.00000000, -0.00390625, 0.00390625, 0.00390625, -0.00390625, 0.00000000, -0.01171875, -0.00390625, 0.00000000, -0.00390625, -0.00390625, -0.00390625, -0.00390625, 0.00390625, 0.00000000, 0.00000000, 0.00000000, -0.00390625, -0.00390625, 0.00000000, 0.00000000, 0.00000000, 0.00390625, 0.00000000, 0.00390625, 0.00390625, -0.00390625, -0.00390625, -0.00781250, -0.00390625, -0.00390625, 0.00781250, 0.00390625, 0.00000000, -0.00390625, 0.00000000, 0.00390625, 0.00000000, 0.00390625, 0.00000000, 0.00000000, 0.00000000, 0.00781250, 0.00000000, 0.00000000, 0.00390625, 0.00000000, -0.00390625, -0.00781250, -0.00390625, -0.00390625, 0.00390625, -0.00390625, 0.00000000, 0.00000000, -0.00390625, -0.00390625, -0.00390625, 0.00000000, 0.00390625, 0.00781250, 0.00000000, 0.00000000, -0.00390625, -0.00781250, -0.00781250, -0.00390625, -0.00390625, -0.00390625, 0.00390625, -0.00390625, -0.00390625, -0.00390625, -0.00781250, -0.00781250, 0.00000000, 0.00390625, 0.00390625, -0.00781250, -0.00390625, 0.00390625, 0.00000000, 0.00000000, 0.00000000, -0.00781250, 0.00000000, 0.00000000, -0.00390625, -0.00390625, -0.01171875, 0.00000000, -0.00390625, -0.00781250, -0.00390625, -0.00390625, 0.00000000, 0.00000000, 0.00000000, 0.00000000, 0.00000000, 0.00000000, -0.00390625, 0.00390625, 0.00000000, -0.00390625, -0.00781250, 0.00390625, 0.00000000, 0.00000000, -0.00390625, 0.00000000, -0.00781250, -0.00390625, 0.00000000, 0.00000000, 0.00000000, -0.00781250, -0.00390625, -0.00390625, 0.00781250, -0.00390625, -0.00390625, 0.00000000, 0.00390625, 0.00000000, 0.00000000, -0.00781250, -0.00390625, 0.00000000, 0.00000000, -0.00390625, -0.00390625, -0.00390625, 0.00000000, -0.00390625, -0.00390625, 0.00000000, 0.00390625, 0.00000000, 0.00000000, -0.00390625, 0.00390625, 0.00000000, -0.00390625, -0.00390625, -0.00390625, 0.00000000, 0.00390625, -0.00781250, -0.00390625, -0.00390625, 0.00000000, 0.00390625, -0.00390625, -0.00781250, -0.00781250, -0.00390625, -0.00390625, -0.00781250, 0.00000000, 0.00000000, 0.00000000, -0.00390625, 0.00000000, 0.00000000, 0.00390625, -0.00390625, 0.00000000, -0.00390625, -0.00390625, 0.00000000, 0.00000000, 0.00000000, 0.00390625, 0.00000000, 0.00000000, -0.00390625, -0.00390625, -0.00781250, 0.00000000, -0.00390625, -0.00781250, -0.00781250, -0.00390625, -0.00390625, 0.00000000, 0.00000000, 0.00000000, 0.00390625, -0.00390625, 0.00000000, -0.00781250, -0.00390625, -0.00781250, -0.00781250, 0.00000000, 0.00000000, 0.00390625, -0.01171875, -0.00390625, -0.00390625, -0.00781250, 0.00000000, -0.00390625, -0.00390625, 0.00390625, -0.00390625, 0.00000000, 0.00390625, 0.00000000, 0.00390625, 0.00781250, -0.00781250, 0.00390625, 0.00390625, 0.00000000, -0.00781250, -0.00781250, 0.00781250, -0.00390625, 0.00390625, 0.00000000, 0.00781250, 0.00781250, 0.00390625, 0.00781250, -0.00390625, 0.00000000, -0.00390625, -0.00390625, 0.00781250, 0.00000000, -0.00390625, -0.00781250, 0.00000000, 0.00000000, 0.00000000, 0.00390625, 0.00000000, -0.00781250, 0.00000000, 0.00000000, 0.00390625, -0.00781250, 0.00000000, 0.00390625, -0.00390625, 0.00000000, -0.00781250, -0.00390625, 0.00390625, 0.00000000, 0.00390625, -0.00390625, -0.00781250, 0.00000000, 0.00390625, -0.00390625, 0.00390625, -0.00390625, -0.00390625, 0.00000000, -0.00390625, -0.00390625, 0.00000000, -0.00781250, -0.00781250, -0.00781250, 0.00000000, 0.00390625, -0.00390625, -0.00390625, 0.00390625, -0.00781250, -0.00390625, 0.00390625, -0.00390625, -0.00390625, 0.00000000, 0.00000000, 0.00390625, -0.00390625, -0.00390625, -0.01171875, 0.00000000, -0.00390625, -0.00390625, 0.00390625, 0.00000000, 0.00000000, -0.01171875, -0.00781250, 0.00000000, -0.00390625, -0.00390625, 0.00000000, 0.00390625, 0.00000000, -0.00390625, -0.00390625, 0.00390625, 0.00390625, -0.00390625, 0.00390625, -0.00390625, -0.00390625, -0.00781250, -0.00390625, -0.00390625, 0.00390625, -0.00390625, 0.00000000, 0.00000000, -0.00781250, -0.00390625, 0.01171875, 0.00000000, -0.00781250, 0.00000000, -0.00390625, 0.00390625, -0.00390625, 0.00390625, 0.00000000, 0.00390625, 0.00390625, -0.00390625, -0.00390625, -0.00390625, -0.00390625, 0.00781250, 0.00000000, 0.00390625, 0.00781250, -0.00781250, 0.00000000, 0.00781250, 0.00000000, 0.00390625, 0.00781250, 0.00000000, 0.00000000, 0.00781250, -0.00390625, 0.00000000, -0.00390625, 0.00390625, -0.00781250, 0.00390625, 0.00390625, 0.00390625, 0.00000000, 0.00000000, -0.00390625, -0.00390625, 0.00000000, -0.00390625, -0.00390625, 0.00000000, 0.00000000, 0.00000000, 0.00000000, 0.00390625, 0.00781250, 0.00000000, 0.00390625, 0.00390625, 0.00000000, -0.00390625, 0.00390625, 0.00390625, -0.00390625, 0.00390625, 0.00390625, -0.00390625, 0.00390625, -0.00390625, 0.00390625, 0.00000000, 0.00781250, 0.00000000, -0.00390625, -0.00781250, 0.00000000, -0.00390625, -0.00390625, -0.00390625, 0.00390625, -0.00781250, 0.00390625, -0.00781250, -0.00781250, -0.00390625, -0.00781250, -0.00390625, -0.00781250, -0.00781250, 0.00000000, 0.00000000, -0.00390625, 0.00390625, -0.00390625, -0.00390625, -0.00390625, -0.00390625, 0.00000000, 0.00000000, 0.00000000, 0.00390625, 0.00781250, -0.00390625, -0.00781250, -0.00390625, 0.00000000, 0.00000000, 0.00781250, 0.00390625, -0.00390625, -0.00390625, -0.00390625, 0.00000000, -0.00390625, 0.00000000, 0.00390625, 0.00390625, 0.00000000, 0.00390625, 0.00781250, -0.00390625, 0.00390625, 0.00000000, 0.00000000, -0.00390625, 0.00390625, -0.00781250, 0.00000000, 0.00000000, 0.00390625, -0.00390625, 0.00000000, -0.00390625, 0.00000000, -0.00781250, 0.00390625, 0.00000000, -0.00781250, 0.00000000, 0.00000000, 0.00000000, -0.00781250, 0.00390625, -0.00390625, 0.00781250, 0.00390625, -0.01171875, 0.00000000, -0.00781250, 0.00390625, 0.00000000, 0.00390625, -0.00781250, -0.00390625, -0.00390625, -0.01171875, 0.00390625, 0.00000000, 0.00390625, -0.00390625, 0.01171875, -0.00390625, 0.00390625, 0.01562500, -0.00781250, 0.00000000, 0.00390625, -0.00390625, 0.00390625, -0.01562500, 0.00390625, -0.01171875, 0.00781250, 0.00390625, -0.00390625, 0.00781250, 0.00000000, 0.00781250, -0.00390625, -0.00390625, 0.01171875, 0.00781250, -0.00781250, 0.00000000, -0.00390625, 0.00000000, -0.00390625, -0.01953125, 0.00390625, -0.01171875, 0.00781250, -0.01562500, -0.00390625, -0.01562500, 0.00781250, 0.00781250, -0.00390625, -0.00781250, -0.00390625, 0.00000000, -0.00781250, 0.00000000, -0.00781250, 0.01562500, 0.00781250, -0.00390625, 0.00000000, 0.00390625, 0.00390625, 0.01171875, 0.01171875, -0.00390625, 0.01171875, 0.00000000, 0.00390625, -0.00390625, 0.00781250, 0.00781250, 0.01171875, -0.00781250, 0.00000000, 0.00390625, -0.00781250, 0.01171875, 0.00781250, 0.00000000, 0.00781250, -0.01171875, 0.00390625, 0.00781250, 0.00390625, 0.00390625, 0.00000000, -0.00390625, -0.00781250, 0.00390625, -0.00390625, 0.00781250, 0.00390625, -0.00390625, -0.01171875, 0.00390625, 0.00000000, 0.00000000, 0.00390625, -0.00390625, 0.01953125, 0.01171875, 0.00390625, 0.00000000, -0.01562500, 0.00000000, 0.00000000, 0.00390625, -0.00390625, 0.00390625, 0.00390625, 0.00000000, -0.03125000, -0.00781250, 0.00781250, -0.01171875, 0.01171875, 0.01562500, -0.00390625, 0.00781250, 0.00390625, 0.00390625, 0.00781250, -0.00390625, 0.00390625, 0.00781250, 0.00390625, -0.00390625, 0.00000000, -0.00781250, 0.00390625, 0.00390625, 0.00000000, -0.00781250, 0.01953125, 0.00781250, -0.00390625, 0.00781250, 0.00781250, 0.00390625, -0.01562500, 0.00390625, 0.01171875, -0.00781250, 0.00390625, 0.03125000, -0.01171875, -0.00390625, 0.00781250, -0.00390625, 0.00781250, -0.00781250, 0.00781250, -0.01171875, 0.01562500, 0.00781250, 0.00000000, 0.00781250, -0.00390625, 0.00000000, 0.01171875, 0.00390625, -0.00390625, -0.00781250, 0.00781250, 0.01562500, 0.00781250, 0.00000000, 0.00000000, 0.00000000, -0.00781250, -0.00781250, -0.00390625, 0.00000000, 0.01171875, 0.00000000, -0.00390625, 0.01171875, -0.00781250, 0.01562500, -0.00781250, 0.00000000, 0.00390625, 0.00781250, 0.00390625, 0.02343750, -0.00390625, 0.00390625, 0.02343750, -0.00390625, -0.00390625, -0.00390625, 0.00781250, 0.00000000, 0.00000000, 0.00000000, -0.00390625, 0.00390625, 0.00000000, 0.00390625, -0.00390625, -0.00781250, 0.00000000, 0.00781250, 0.00000000, -0.00781250, 0.00781250, 0.00000000, 0.00781250, 0.00000000, 0.00781250, 0.01562500, 0.00781250, -0.00781250, -0.00781250, -0.00390625, 0.01171875, 0.00390625, 0.01562500, -0.01562500, 0.00390625, 0.01171875, 0.01171875, 0.00781250, -0.01562500, 0.01171875, 0.00000000, -0.01171875, 0.01171875, -0.00390625, 0.00000000, 0.00390625, -0.00781250, 0.01171875, 0.00781250, 0.01562500, -0.00390625, 0.01171875, 0.00390625, 0.00781250, 0.00781250, 0.00000000, 0.00000000, 0.01562500, -0.01562500, 0.01562500, 0.00390625, -0.01171875, -0.00781250, 0.01171875, -0.00390625, -0.00390625, -0.00781250, -0.00781250, -0.01171875, 0.00000000, 0.00000000, 0.00390625, 0.00000000, 0.00390625, 0.00390625, -0.00390625, 0.01171875, 0.00000000, 0.00781250, 0.00781250, 0.00000000, -0.01171875, -0.01171875, -0.00390625, 0.00390625, -0.01562500, -0.00781250, -0.00390625, 0.00390625, -0.00390625, 0.00000000, 0.00000000, 0.00000000, -0.00390625, -0.01171875, 0.00000000, -0.00781250, -0.00390625, -0.01562500, -0.01562500, 0.00000000, -0.00390625, -0.01953125, -0.01953125, 0.00000000, 0.00390625, 0.00781250, 0.00000000, -0.01562500, -0.01562500, -0.00390625, 0.00781250, 0.01171875, -0.00781250, -0.00781250, -0.00781250, -0.00390625, -0.01953125, 0.00000000, 0.00000000, 0.01171875, 0.00781250, 0.00390625, -0.00781250, 0.00000000, 0.00390625, -0.00390625, 0.00781250, -0.01953125, 0.00390625, 0.00390625, 0.00000000, -0.01171875, 0.00000000, -0.01171875, -0.00390625, 0.00000000, -0.00781250, -0.00781250, -0.00390625, 0.00000000, 0.00000000, -0.00781250, 0.00390625, -0.00390625, -0.00781250, -0.00390625, -0.00781250, 0.00000000, -0.00390625, -0.00390625, -0.00781250, -0.00390625, 0.00000000, 0.00000000, 0.00000000, -0.00781250, 0.00390625, -0.00781250, -0.00390625, -0.00781250, 0.01171875, 0.00390625, -0.01562500, -0.00390625, 0.00390625, 0.00390625, 0.00000000, -0.00390625, -0.00781250, 0.01562500, -0.02343750, -0.01171875, -0.00781250, 0.00000000, -0.01171875, -0.01953125, -0.01562500, -0.01562500, 0.00390625, -0.00781250, -0.00781250, 0.00000000, 0.00000000, -0.01171875, 0.00000000, 0.01171875, -0.00390625, -0.00390625, 0.00000000, 0.00000000, -0.01562500, -0.00390625, -0.00781250, 0.00781250, 0.00390625, 0.00000000, -0.00781250, -0.01562500, -0.01562500, -0.00781250, -0.00390625, -0.01171875, -0.00390625, -0.01953125, 0.00000000, 0.00000000, -0.01562500, -0.00781250, 0.00000000, 0.01953125, -0.00390625, -0.00390625, 0.01562500, -0.00390625, -0.02343750, 0.00390625, -0.00390625, -0.01562500, 0.00000000, 0.00390625, -0.01562500, -0.00781250, 0.00390625, -0.00781250, 0.01171875, 0.00390625, 0.01562500, -0.01171875, 0.01171875, -0.00781250, 0.00000000, 0.00000000, -0.00390625, -0.00781250, -0.00781250, -0.00390625, 0.00000000, 0.00390625, -0.00781250, 0.00000000, 0.00000000, -0.00390625, -0.01171875, 0.00000000, -0.00781250, -0.00390625, -0.00781250, -0.00781250, -0.01171875, -0.00781250, -0.00390625, -0.03125000, 0.00000000, -0.00390625, -0.00390625, 0.01171875, -0.00390625, -0.01171875, 0.01953125, 0.00390625, -0.01562500, -0.00781250, 0.00000000, 0.00000000, 0.00390625, 0.00000000, -0.00390625, -0.00781250, -0.00781250, 0.01171875, 0.00000000, 0.00000000, -0.00781250, 0.00000000, 0.00781250, 0.01171875, -0.00390625, -0.00781250, -0.01171875, -0.00390625, 0.00390625, 0.00000000, 0.00390625, 0.00000000, 0.00000000, -0.01562500, -0.00781250, -0.01171875, 0.01562500, 0.00390625, 0.00390625, 0.00390625, -0.00781250, 0.02343750, -0.00781250, 0.00781250, 0.00000000, -0.01562500, -0.01562500, 0.00000000, 0.00000000, -0.01171875, 0.00000000, 0.00000000, -0.01171875, 0.00000000, -0.00781250, -0.00781250, 0.00781250, -0.01562500, -0.01171875, 0.00390625, -0.01171875, 0.00781250, -0.03515625, 0.00781250, 0.00390625, -0.02343750, -0.00781250, 0.00781250, 0.00000000, 0.00781250, 0.00000000, 0.00000000, -0.00390625, 0.01171875, 0.01953125, 0.00390625, -0.00390625, -0.01171875, 0.00390625, -0.00781250, 0.01171875, 0.00000000, 0.00000000, 0.00390625, 0.00390625, 0.00781250, -0.00781250, 0.00390625, -0.00390625, 0.00000000, -0.00390625, 0.00781250, 0.00390625, 0.00390625, 0.00390625, -0.00781250, 0.00781250, 0.00000000, 0.00000000, -0.00781250, -0.00390625, 0.00000000, 0.00000000, 0.00781250, 0.01562500, -0.00390625, 0.01953125, 0.00390625, 0.00781250, 0.00390625, 0.01171875, 0.01171875, -0.00390625, 0.01171875, -0.00781250, 0.00000000, 0.00000000, 0.00781250, 0.00781250, -0.00390625, -0.00390625, -0.00781250, 0.00781250, 0.00000000, 0.00781250, -0.00390625, 0.00390625, -0.00781250, -0.01171875, -0.00390625, 0.01171875, 0.00390625, 0.00390625, -0.00781250, 0.00781250, 0.01171875, -0.01171875, 0.01562500, 0.00000000, -0.01953125, 0.01562500, 0.00781250, 0.00390625, 0.00000000, 0.00000000, 0.00781250, -0.00781250, 0.00390625, 0.00781250, 0.00390625, 0.00390625, 0.00390625, -0.00781250, 0.00390625, -0.00390625, -0.00390625, 0.00000000, -0.00390625, 0.00781250, 0.00781250, 0.01171875, 0.01171875, 0.00000000, -0.01953125, -0.00390625, 0.00781250, 0.00781250, -0.00781250, -0.00781250, -0.00781250, 0.00000000, 0.01171875, 0.00000000, -0.01953125, -0.00390625, 0.00390625, -0.01171875, 0.00000000, 0.00390625, 0.01171875, 0.01171875, 0.00390625, 0.00781250, 0.01171875, -0.00390625, 0.00000000, -0.00390625, 0.00000000, 0.01171875, 0.00000000, 0.00000000, 0.00000000, -0.01171875, 0.00390625, 0.00390625, 0.00000000, 0.00000000, 0.00000000, -0.01171875, -0.01953125, -0.01171875, 0.00000000, 0.00781250, 0.00000000, 0.00000000, -0.00390625, 0.00781250, 0.00390625, -0.01562500, -0.00390625, -0.01171875, -0.00390625, 0.00000000, -0.01171875, -0.01171875, -0.00390625, -0.01171875, -0.01171875, -0.01562500, -0.00390625, -0.00390625, -0.00390625, 0.00000000, -0.00390625, -0.00781250, -0.00781250, 0.01171875, -0.00390625, -0.01171875, 0.00390625, -0.00781250, 0.00390625, -0.00781250, -0.01171875, -0.01562500, -0.01171875, -0.00781250, -0.00781250, -0.00781250, 0.00000000, -0.00781250, -0.01562500, 0.00781250, 0.00781250, -0.01171875, -0.00390625, -0.00390625, 0.00390625, -0.00781250, 0.00000000, -0.01562500, 0.01171875, 0.00390625, -0.01562500, 0.00000000, 0.00000000, 0.00000000, -0.00390625, 0.00781250, -0.01953125, 0.00390625, -0.00781250, -0.00390625, 0.00000000, -0.01171875, -0.00781250, -0.00781250, -0.00390625, -0.01562500, 0.00000000, 0.00781250, 0.00000000, -0.01171875, -0.00390625, 0.00781250, -0.00781250, 0.00390625, -0.01953125, -0.01562500, 0.00000000, 0.00000000, -0.01953125, -0.00390625, -0.00390625, 0.00390625, 0.00781250, 0.00781250, -0.00781250, 0.00390625, -0.01171875, -0.00390625, -0.00781250, -0.01562500, 0.00000000, -0.01171875, -0.00390625, -0.01562500, -0.01171875, -0.00781250, 0.00390625, 0.00000000, -0.01171875, -0.01953125, -0.01562500, -0.01171875, 0.00000000, -0.00390625, 0.00390625, -0.00781250, 0.00781250, -0.00781250, -0.00390625, -0.01171875, 0.00781250, 0.00781250, -0.00390625, 0.00000000, 0.00000000, 0.00000000, -0.01171875, -0.00390625, -0.00390625, 0.01171875, -0.02343750, -0.00390625, -0.00781250, -0.00781250, -0.01562500, 0.00000000, 0.00000000, -0.00390625, 0.00390625, 0.00000000, 0.00781250, 0.00781250, 0.00390625, -0.00390625, 0.00000000, 0.00390625, -0.00390625, -0.00781250, -0.00390625, 0.02343750, -0.01562500, 0.01171875, -0.00781250, -0.01171875, 0.00390625, -0.00781250, -0.00781250, 0.00390625, -0.00390625, 0.00781250, 0.01562500, 0.01171875, -0.00390625, 0.01171875, 0.00390625, 0.01953125, -0.01171875, 0.00781250, 0.00390625, -0.00781250, 0.01562500, -0.00781250, 0.00390625, 0.00390625, -0.00390625, 0.01171875, -0.00390625, -0.00390625, 0.00390625, 0.00781250, 0.00390625, 0.00390625, 0.00000000, 0.00781250, 0.01562500, 0.00390625, 0.00000000, -0.00781250, 0.00000000, 0.00781250, -0.00781250, 0.00781250, 0.01171875, -0.01171875, 0.00000000, 0.00000000, -0.00781250, 0.00000000, -0.00390625, 0.00390625, -0.00390625, 0.00390625, -0.00390625, -0.00390625, 0.00390625, 0.01171875, 0.01562500, 0.00000000, -0.00781250, -0.00390625, 0.00781250, -0.00390625, -0.00390625, 0.00000000, 0.01171875, -0.00781250, 0.00390625, 0.00390625, 0.01953125, -0.01171875, 0.00000000, 0.00781250, -0.00390625, 0.00000000, -0.00390625, 0.00390625, 0.00781250, -0.01953125, 0.00000000, 0.00781250, 0.00000000, -0.00390625, -0.01953125, 0.01562500, -0.00390625, 0.01562500, 0.01171875, 0.02343750, -0.00781250, 0.01171875, 0.00390625, -0.00390625, 0.01171875, 0.01562500, 0.00781250, -0.00781250, 0.00390625, -0.00781250, -0.01171875, -0.00390625, -0.00781250, 0.00000000, 0.00000000, 0.00390625, -0.00390625, 0.00000000, 0.00390625, 0.00000000, -0.02343750, -0.00781250, -0.01171875, 0.01171875, 0.01562500, 0.00390625, -0.00781250, 0.00000000, -0.00390625, 0.01171875, 0.00781250, -0.00781250, -0.00781250, 0.00390625, 0.00000000, 0.00000000, 0.00781250, 0.00000000, 0.01562500, 0.00781250, -0.01562500, 0.00390625, 0.00000000, -0.00390625, 0.00390625, -0.00781250, 0.00390625, -0.00390625, 0.00781250, -0.01171875, 0.01171875, -0.00390625, 0.00390625, 0.01171875, 0.00781250, 0.00000000, -0.00390625, -0.00390625, 0.01171875, 0.00000000, 0.01562500, 0.00781250, -0.00390625, -0.01562500, 0.00781250, 0.01562500, 0.00000000, -0.00781250, -0.00781250, 0.01171875, 0.00390625, -0.01562500, 0.00000000, 0.01171875, -0.01171875, -0.00390625, -0.00390625, 0.00000000, 0.00000000, 0.02734375, 0.00781250, 0.00390625, -0.01562500, 0.00390625, 0.00781250, -0.01171875, 0.00000000, -0.01171875, 0.00781250, 0.00781250, 0.00390625, 0.00390625, 0.00390625, 0.00781250, -0.00390625, 0.00000000, 0.00000000, 0.01953125, -0.00390625, 0.01171875, 0.00000000, -0.01171875, 0.01171875, 0.01171875, 0.00781250, -0.00781250, 0.01953125, -0.00781250, 0.00390625, -0.00781250, 0.00000000, -0.01562500, 0.00000000, -0.01171875, -0.01171875, 0.00000000, 0.00000000, 0.00390625, 0.00390625, 0.00000000, 0.00390625, -0.00390625, -0.01171875, 0.01171875, -0.02734375, 0.00000000, 0.00781250, 0.01171875, -0.00781250, 0.00781250, 0.01171875, 0.00390625, 0.00390625, 0.00781250, 0.00000000, 0.01171875, 0.00781250, 0.00781250, -0.01171875, -0.01171875, 0.00390625, -0.01171875, 0.00000000, 0.00781250, 0.00390625, 0.00781250, 0.00390625, -0.00781250, 0.00000000, -0.00781250, -0.00390625, -0.00781250, -0.00390625, -0.01953125, -0.01171875, -0.01171875, -0.00390625, -0.00781250, -0.01171875, -0.01171875, -0.00781250, -0.01171875, -0.01171875, -0.01171875, -0.01171875, -0.01171875, 0.00000000, -0.00781250, -0.00781250, -0.00390625, -0.00390625, -0.01171875, -0.00390625, -0.01171875, -0.01562500, -0.00781250, -0.00781250, -0.01171875, -0.00781250, 0.00390625, 0.00000000, 0.00390625, -0.00390625, -0.01562500, -0.01171875, -0.01171875, 0.00000000, -0.00390625, -0.00781250, -0.01171875, -0.00781250, -0.00390625, -0.01171875, -0.01171875, -0.01562500, -0.00390625, -0.00781250, -0.01953125, -0.01171875, 0.00000000, -0.00390625, -0.01562500, -0.00390625, -0.01171875, -0.01171875, -0.00781250, -0.00390625, -0.00781250, -0.01562500, -0.00390625, -0.00390625, -0.01562500, 0.00390625, 0.00000000, -0.01562500, 0.00781250, -0.00781250, -0.00781250, -0.01171875, 